digraph Tree {
node [shape=box] ;
0 [label="X[9] <= -3.664\ngini = 0.003\nsamples = 126359\nvalue = [199282, 326]\nclass = 0"] ;
1 [label="X[11] <= 1.443\ngini = 0.276\nsamples = 84\nvalue = [20, 101]\nclass = 1"] ;
0 -> 1 [labeldistance=2.5, labelangle=45, headlabel="True"] ;
2 [label="gini = 0.0\nsamples = 13\nvalue = [17, 0]\nclass = 0"] ;
1 -> 2 ;
3 [label="X[13] <= 1.248\ngini = 0.056\nsamples = 71\nvalue = [3, 101]\nclass = 1"] ;
1 -> 3 ;
4 [label="gini = 0.0\nsamples = 57\nvalue = [0, 85]\nclass = 1"] ;
3 -> 4 ;
5 [label="X[1] <= -26.051\ngini = 0.266\nsamples = 14\nvalue = [3, 16]\nclass = 1"] ;
3 -> 5 ;
6 [label="gini = 0.0\nsamples = 2\nvalue = [3, 0]\nclass = 0"] ;
5 -> 6 ;
7 [label="gini = 0.0\nsamples = 12\nvalue = [0, 16]\nclass = 1"] ;
5 -> 7 ;
8 [label="X[14] <= -4.661\ngini = 0.002\nsamples = 126275\nvalue = [199262, 225]\nclass = 0"] ;
0 -> 8 [labeldistance=2.5, labelangle=-45, headlabel="False"] ;
9 [label="X[7] <= -0.696\ngini = 0.488\nsamples = 223\nvalue = [198, 144]\nclass = 0"] ;
8 -> 9 ;
10 [label="X[8] <= 2.538\ngini = 0.261\nsamples = 99\nvalue = [23, 126]\nclass = 1"] ;
9 -> 10 ;
11 [label="X[17] <= -8.277\ngini = 0.061\nsamples = 83\nvalue = [4, 122]\nclass = 1"] ;
10 -> 11 ;
12 [label="X[16] <= -4.031\ngini = 0.245\nsamples = 22\nvalue = [4, 24]\nclass = 1"] ;
11 -> 12 ;
13 [label="X[1] <= -1.195\ngini = 0.142\nsamples = 20\nvalue = [2, 24]\nclass = 1"] ;
12 -> 13 ;
14 [label="X[17] <= -8.78\ngini = 0.077\nsamples = 19\nvalue = [1, 24]\nclass = 1"] ;
13 -> 14 ;
15 [label="gini = 0.0\nsamples = 18\nvalue = [0, 24]\nclass = 1"] ;
14 -> 15 ;
16 [label="gini = 0.0\nsamples = 1\nvalue = [1, 0]\nclass = 0"] ;
14 -> 16 ;
17 [label="gini = 0.0\nsamples = 1\nvalue = [1, 0]\nclass = 0"] ;
13 -> 17 ;
18 [label="gini = 0.0\nsamples = 2\nvalue = [2, 0]\nclass = 0"] ;
12 -> 18 ;
19 [label="gini = 0.0\nsamples = 61\nvalue = [0, 98]\nclass = 1"] ;
11 -> 19 ;
20 [label="X[10] <= -6.322\ngini = 0.287\nsamples = 16\nvalue = [19, 4]\nclass = 0"] ;
10 -> 20 ;
21 [label="X[0] <= 59009.5\ngini = 0.095\nsamples = 13\nvalue = [19, 1]\nclass = 0"] ;
20 -> 21 ;
22 [label="gini = 0.0\nsamples = 12\nvalue = [19, 0]\nclass = 0"] ;
21 -> 22 ;
23 [label="gini = 0.0\nsamples = 1\nvalue = [0, 1]\nclass = 1"] ;
21 -> 23 ;
24 [label="gini = 0.0\nsamples = 3\nvalue = [0, 3]\nclass = 1"] ;
20 -> 24 ;
25 [label="X[29] <= 315.775\ngini = 0.169\nsamples = 124\nvalue = [175, 18]\nclass = 0"] ;
9 -> 25 ;
26 [label="X[20] <= 0.324\ngini = 0.104\nsamples = 118\nvalue = [172, 10]\nclass = 0"] ;
25 -> 26 ;
27 [label="X[0] <= 77717.0\ngini = 0.32\nsamples = 33\nvalue = [40, 10]\nclass = 0"] ;
26 -> 27 ;
28 [label="X[22] <= -0.869\ngini = 0.498\nsamples = 11\nvalue = [9, 8]\nclass = 0"] ;
27 -> 28 ;
29 [label="gini = 0.0\nsamples = 5\nvalue = [9, 0]\nclass = 0"] ;
28 -> 29 ;
30 [label="gini = 0.0\nsamples = 6\nvalue = [0, 8]\nclass = 1"] ;
28 -> 30 ;
31 [label="X[15] <= -0.041\ngini = 0.114\nsamples = 22\nvalue = [31, 2]\nclass = 0"] ;
27 -> 31 ;
32 [label="X[24] <= 0.051\ngini = 0.278\nsamples = 10\nvalue = [10, 2]\nclass = 0"] ;
31 -> 32 ;
33 [label="X[6] <= -1.378\ngini = 0.165\nsamples = 9\nvalue = [10, 1]\nclass = 0"] ;
32 -> 33 ;
34 [label="gini = 0.0\nsamples = 8\nvalue = [10, 0]\nclass = 0"] ;
33 -> 34 ;
35 [label="gini = 0.0\nsamples = 1\nvalue = [0, 1]\nclass = 1"] ;
33 -> 35 ;
36 [label="gini = 0.0\nsamples = 1\nvalue = [0, 1]\nclass = 1"] ;
32 -> 36 ;
37 [label="gini = 0.0\nsamples = 12\nvalue = [21, 0]\nclass = 0"] ;
31 -> 37 ;
38 [label="gini = 0.0\nsamples = 85\nvalue = [132, 0]\nclass = 0"] ;
26 -> 38 ;
39 [label="X[2] <= -2.929\ngini = 0.397\nsamples = 6\nvalue = [3, 8]\nclass = 1"] ;
25 -> 39 ;
40 [label="gini = 0.0\nsamples = 2\nvalue = [3, 0]\nclass = 0"] ;
39 -> 40 ;
41 [label="gini = 0.0\nsamples = 4\nvalue = [0, 8]\nclass = 1"] ;
39 -> 41 ;
42 [label="X[21] <= 0.595\ngini = 0.001\nsamples = 126052\nvalue = [199064, 81]\nclass = 0"] ;
8 -> 42 ;
43 [label="X[17] <= -2.789\ngini = 0.001\nsamples = 120736\nvalue = [190735, 53]\nclass = 0"] ;
42 -> 43 ;
44 [label="X[2] <= 1.602\ngini = 0.444\nsamples = 17\nvalue = [18, 9]\nclass = 0"] ;
43 -> 44 ;
45 [label="gini = 0.0\nsamples = 10\nvalue = [14, 0]\nclass = 0"] ;
44 -> 45 ;
46 [label="X[17] <= -6.033\ngini = 0.426\nsamples = 7\nvalue = [4, 9]\nclass = 1"] ;
44 -> 46 ;
47 [label="gini = 0.0\nsamples = 1\nvalue = [4, 0]\nclass = 0"] ;
46 -> 47 ;
48 [label="gini = 0.0\nsamples = 6\nvalue = [0, 9]\nclass = 1"] ;
46 -> 48 ;
49 [label="X[17] <= 1.591\ngini = 0.0\nsamples = 120719\nvalue = [190717, 44]\nclass = 0"] ;
43 -> 49 ;
50 [label="X[17] <= -2.041\ngini = 0.0\nsamples = 117430\nvalue = [185583, 26]\nclass = 0"] ;
49 -> 50 ;
51 [label="X[19] <= -0.819\ngini = 0.056\nsamples = 44\nvalue = [68, 2]\nclass = 0"] ;
50 -> 51 ;
52 [label="X[17] <= -2.061\ngini = 0.278\nsamples = 8\nvalue = [10, 2]\nclass = 0"] ;
51 -> 52 ;
53 [label="gini = 0.0\nsamples = 7\nvalue = [10, 0]\nclass = 0"] ;
52 -> 53 ;
54 [label="gini = 0.0\nsamples = 1\nvalue = [0, 2]\nclass = 1"] ;
52 -> 54 ;
55 [label="gini = 0.0\nsamples = 36\nvalue = [58, 0]\nclass = 0"] ;
51 -> 55 ;
56 [label="X[19] <= -1.577\ngini = 0.0\nsamples = 117386\nvalue = [185515, 24]\nclass = 0"] ;
50 -> 56 ;
57 [label="X[29] <= 723.175\ngini = 0.002\nsamples = 3258\nvalue = [5121, 6]\nclass = 0"] ;
56 -> 57 ;
58 [label="X[12] <= -2.777\ngini = 0.002\nsamples = 3203\nvalue = [5033, 4]\nclass = 0"] ;
57 -> 58 ;
59 [label="X[24] <= -0.208\ngini = 0.028\nsamples = 87\nvalue = [140, 2]\nclass = 0"] ;
58 -> 59 ;
60 [label="X[12] <= -2.792\ngini = 0.114\nsamples = 21\nvalue = [31, 2]\nclass = 0"] ;
59 -> 60 ;
61 [label="gini = 0.0\nsamples = 20\nvalue = [31, 0]\nclass = 0"] ;
60 -> 61 ;
62 [label="gini = 0.0\nsamples = 1\nvalue = [0, 2]\nclass = 1"] ;
60 -> 62 ;
63 [label="gini = 0.0\nsamples = 66\nvalue = [109, 0]\nclass = 0"] ;
59 -> 63 ;
64 [label="X[29] <= 0.005\ngini = 0.001\nsamples = 3116\nvalue = [4893, 2]\nclass = 0"] ;
58 -> 64 ;
65 [label="X[11] <= 1.756\ngini = 0.016\nsamples = 75\nvalue = [120, 1]\nclass = 0"] ;
64 -> 65 ;
66 [label="gini = 0.0\nsamples = 73\nvalue = [119, 0]\nclass = 0"] ;
65 -> 66 ;
67 [label="X[23] <= 0.068\ngini = 0.5\nsamples = 2\nvalue = [1, 1]\nclass = 0"] ;
65 -> 67 ;
68 [label="gini = 0.0\nsamples = 1\nvalue = [0, 1]\nclass = 1"] ;
67 -> 68 ;
69 [label="gini = 0.0\nsamples = 1\nvalue = [1, 0]\nclass = 0"] ;
67 -> 69 ;
70 [label="X[28] <= -0.33\ngini = 0.0\nsamples = 3041\nvalue = [4773, 1]\nclass = 0"] ;
64 -> 70 ;
71 [label="X[15] <= -1.465\ngini = 0.007\nsamples = 178\nvalue = [283, 1]\nclass = 0"] ;
70 -> 71 ;
72 [label="X[11] <= -1.237\ngini = 0.077\nsamples = 16\nvalue = [24, 1]\nclass = 0"] ;
71 -> 72 ;
73 [label="X[7] <= 0.002\ngini = 0.375\nsamples = 3\nvalue = [3, 1]\nclass = 0"] ;
72 -> 73 ;
74 [label="gini = 0.0\nsamples = 2\nvalue = [3, 0]\nclass = 0"] ;
73 -> 74 ;
75 [label="gini = 0.0\nsamples = 1\nvalue = [0, 1]\nclass = 1"] ;
73 -> 75 ;
76 [label="gini = 0.0\nsamples = 13\nvalue = [21, 0]\nclass = 0"] ;
72 -> 76 ;
77 [label="gini = 0.0\nsamples = 162\nvalue = [259, 0]\nclass = 0"] ;
71 -> 77 ;
78 [label="gini = 0.0\nsamples = 2863\nvalue = [4490, 0]\nclass = 0"] ;
70 -> 78 ;
79 [label="X[4] <= 4.529\ngini = 0.043\nsamples = 55\nvalue = [88, 2]\nclass = 0"] ;
57 -> 79 ;
80 [label="gini = 0.0\nsamples = 53\nvalue = [86, 0]\nclass = 0"] ;
79 -> 80 ;
81 [label="X[29] <= 1136.71\ngini = 0.5\nsamples = 2\nvalue = [2, 2]\nclass = 0"] ;
79 -> 81 ;
82 [label="gini = 0.0\nsamples = 1\nvalue = [0, 2]\nclass = 1"] ;
81 -> 82 ;
83 [label="gini = 0.0\nsamples = 1\nvalue = [2, 0]\nclass = 0"] ;
81 -> 83 ;
84 [label="X[15] <= 2.206\ngini = 0.0\nsamples = 114128\nvalue = [180394, 18]\nclass = 0"] ;
56 -> 84 ;
85 [label="X[4] <= 5.153\ngini = 0.0\nsamples = 113798\nvalue = [179855, 15]\nclass = 0"] ;
84 -> 85 ;
86 [label="X[16] <= 1.507\ngini = 0.0\nsamples = 113729\nvalue = [179754, 13]\nclass = 0"] ;
85 -> 86 ;
87 [label="X[14] <= -0.82\ngini = 0.0\nsamples = 110546\nvalue = [174648, 10]\nclass = 0"] ;
86 -> 87 ;
88 [label="X[25] <= 0.239\ngini = 0.001\nsamples = 12728\nvalue = [19921, 6]\nclass = 0"] ;
87 -> 88 ;
89 [label="X[21] <= -0.033\ngini = 0.0\nsamples = 8147\nvalue = [12733, 1]\nclass = 0"] ;
88 -> 89 ;
90 [label="gini = 0.0\nsamples = 4857\nvalue = [7536, 0]\nclass = 0"] ;
89 -> 90 ;
91 [label="X[23] <= 0.483\ngini = 0.0\nsamples = 3290\nvalue = [5197, 1]\nclass = 0"] ;
89 -> 91 ;
92 [label="gini = 0.0\nsamples = 3153\nvalue = [4984, 0]\nclass = 0"] ;
91 -> 92 ;
93 [label="X[23] <= 0.484\ngini = 0.009\nsamples = 137\nvalue = [213, 1]\nclass = 0"] ;
91 -> 93 ;
94 [label="gini = 0.0\nsamples = 1\nvalue = [0, 1]\nclass = 1"] ;
93 -> 94 ;
95 [label="gini = 0.0\nsamples = 136\nvalue = [213, 0]\nclass = 0"] ;
93 -> 95 ;
96 [label="X[0] <= 47570.5\ngini = 0.001\nsamples = 4581\nvalue = [7188, 5]\nclass = 0"] ;
88 -> 96 ;
97 [label="X[14] <= -0.82\ngini = 0.006\nsamples = 1006\nvalue = [1595, 5]\nclass = 0"] ;
96 -> 97 ;
98 [label="X[26] <= -0.444\ngini = 0.004\nsamples = 1005\nvalue = [1595, 3]\nclass = 0"] ;
97 -> 98 ;
99 [label="X[17] <= 1.079\ngini = 0.028\nsamples = 83\nvalue = [140, 2]\nclass = 0"] ;
98 -> 99 ;
100 [label="gini = 0.0\nsamples = 79\nvalue = [136, 0]\nclass = 0"] ;
99 -> 100 ;
101 [label="X[12] <= -0.048\ngini = 0.444\nsamples = 4\nvalue = [4, 2]\nclass = 0"] ;
99 -> 101 ;
102 [label="gini = 0.0\nsamples = 1\nvalue = [0, 2]\nclass = 1"] ;
101 -> 102 ;
103 [label="gini = 0.0\nsamples = 3\nvalue = [4, 0]\nclass = 0"] ;
101 -> 103 ;
104 [label="X[17] <= 1.143\ngini = 0.001\nsamples = 922\nvalue = [1455, 1]\nclass = 0"] ;
98 -> 104 ;
105 [label="gini = 0.0\nsamples = 793\nvalue = [1244, 0]\nclass = 0"] ;
104 -> 105 ;
106 [label="X[28] <= 0.031\ngini = 0.009\nsamples = 129\nvalue = [211, 1]\nclass = 0"] ;
104 -> 106 ;
107 [label="X[4] <= 0.731\ngini = 0.042\nsamples = 32\nvalue = [46, 1]\nclass = 0"] ;
106 -> 107 ;
108 [label="gini = 0.0\nsamples = 25\nvalue = [38, 0]\nclass = 0"] ;
107 -> 108 ;
109 [label="X[1] <= 1.177\ngini = 0.198\nsamples = 7\nvalue = [8, 1]\nclass = 0"] ;
107 -> 109 ;
110 [label="gini = 0.0\nsamples = 6\nvalue = [8, 0]\nclass = 0"] ;
109 -> 110 ;
111 [label="gini = 0.0\nsamples = 1\nvalue = [0, 1]\nclass = 1"] ;
109 -> 111 ;
112 [label="gini = 0.0\nsamples = 97\nvalue = [165, 0]\nclass = 0"] ;
106 -> 112 ;
113 [label="gini = 0.0\nsamples = 1\nvalue = [0, 2]\nclass = 1"] ;
97 -> 113 ;
114 [label="gini = 0.0\nsamples = 3575\nvalue = [5593, 0]\nclass = 0"] ;
96 -> 114 ;
115 [label="X[20] <= 0.647\ngini = 0.0\nsamples = 97818\nvalue = [154727, 4]\nclass = 0"] ;
87 -> 115 ;
116 [label="X[28] <= 0.021\ngini = 0.0\nsamples = 93140\nvalue = [147256, 2]\nclass = 0"] ;
115 -> 116 ;
117 [label="gini = 0.0\nsamples = 55000\nvalue = [86838, 0]\nclass = 0"] ;
116 -> 117 ;
118 [label="X[15] <= 0.934\ngini = 0.0\nsamples = 38140\nvalue = [60418, 2]\nclass = 0"] ;
116 -> 118 ;
119 [label="gini = 0.0\nsamples = 30423\nvalue = [48134, 0]\nclass = 0"] ;
118 -> 119 ;
120 [label="X[26] <= -0.414\ngini = 0.0\nsamples = 7717\nvalue = [12284, 2]\nclass = 0"] ;
118 -> 120 ;
121 [label="X[26] <= -0.414\ngini = 0.002\nsamples = 1502\nvalue = [2351, 2]\nclass = 0"] ;
120 -> 121 ;
122 [label="X[15] <= 0.934\ngini = 0.001\nsamples = 1501\nvalue = [2351, 1]\nclass = 0"] ;
121 -> 122 ;
123 [label="gini = 0.0\nsamples = 1\nvalue = [0, 1]\nclass = 1"] ;
122 -> 123 ;
124 [label="gini = 0.0\nsamples = 1500\nvalue = [2351, 0]\nclass = 0"] ;
122 -> 124 ;
125 [label="gini = 0.0\nsamples = 1\nvalue = [0, 1]\nclass = 1"] ;
121 -> 125 ;
126 [label="gini = 0.0\nsamples = 6215\nvalue = [9933, 0]\nclass = 0"] ;
120 -> 126 ;
127 [label="X[8] <= -2.203\ngini = 0.001\nsamples = 4678\nvalue = [7471, 2]\nclass = 0"] ;
115 -> 127 ;
128 [label="X[29] <= 0.765\ngini = 0.004\nsamples = 656\nvalue = [1038, 2]\nclass = 0"] ;
127 -> 128 ;
129 [label="X[12] <= -0.857\ngini = 0.087\nsamples = 27\nvalue = [42, 2]\nclass = 0"] ;
128 -> 129 ;
130 [label="gini = 0.0\nsamples = 1\nvalue = [0, 1]\nclass = 1"] ;
129 -> 130 ;
131 [label="X[2] <= 1.127\ngini = 0.045\nsamples = 26\nvalue = [42, 1]\nclass = 0"] ;
129 -> 131 ;
132 [label="X[12] <= 0.86\ngini = 0.245\nsamples = 5\nvalue = [6, 1]\nclass = 0"] ;
131 -> 132 ;
133 [label="gini = 0.0\nsamples = 4\nvalue = [6, 0]\nclass = 0"] ;
132 -> 133 ;
134 [label="gini = 0.0\nsamples = 1\nvalue = [0, 1]\nclass = 1"] ;
132 -> 134 ;
135 [label="gini = 0.0\nsamples = 21\nvalue = [36, 0]\nclass = 0"] ;
131 -> 135 ;
136 [label="gini = 0.0\nsamples = 629\nvalue = [996, 0]\nclass = 0"] ;
128 -> 136 ;
137 [label="gini = 0.0\nsamples = 4022\nvalue = [6433, 0]\nclass = 0"] ;
127 -> 137 ;
138 [label="X[14] <= -2.419\ngini = 0.001\nsamples = 3183\nvalue = [5106, 3]\nclass = 0"] ;
86 -> 138 ;
139 [label="X[26] <= 0.159\ngini = 0.08\nsamples = 32\nvalue = [46, 2]\nclass = 0"] ;
138 -> 139 ;
140 [label="gini = 0.0\nsamples = 27\nvalue = [40, 0]\nclass = 0"] ;
139 -> 140 ;
141 [label="X[16] <= 1.509\ngini = 0.375\nsamples = 5\nvalue = [6, 2]\nclass = 0"] ;
139 -> 141 ;
142 [label="gini = 0.0\nsamples = 1\nvalue = [0, 2]\nclass = 1"] ;
141 -> 142 ;
143 [label="gini = 0.0\nsamples = 4\nvalue = [6, 0]\nclass = 0"] ;
141 -> 143 ;
144 [label="X[11] <= 1.338\ngini = 0.0\nsamples = 3151\nvalue = [5060, 1]\nclass = 0"] ;
138 -> 144 ;
145 [label="gini = 0.0\nsamples = 2956\nvalue = [4745, 0]\nclass = 0"] ;
144 -> 145 ;
146 [label="X[14] <= -1.807\ngini = 0.006\nsamples = 195\nvalue = [315, 1]\nclass = 0"] ;
144 -> 146 ;
147 [label="X[11] <= 1.36\ngini = 0.05\nsamples = 23\nvalue = [38, 1]\nclass = 0"] ;
146 -> 147 ;
148 [label="gini = 0.0\nsamples = 1\nvalue = [0, 1]\nclass = 1"] ;
147 -> 148 ;
149 [label="gini = 0.0\nsamples = 22\nvalue = [38, 0]\nclass = 0"] ;
147 -> 149 ;
150 [label="gini = 0.0\nsamples = 172\nvalue = [277, 0]\nclass = 0"] ;
146 -> 150 ;
151 [label="X[16] <= -0.735\ngini = 0.038\nsamples = 69\nvalue = [101, 2]\nclass = 0"] ;
85 -> 151 ;
152 [label="gini = 0.0\nsamples = 1\nvalue = [0, 2]\nclass = 1"] ;
151 -> 152 ;
153 [label="gini = 0.0\nsamples = 68\nvalue = [101, 0]\nclass = 0"] ;
151 -> 153 ;
154 [label="X[29] <= 290.09\ngini = 0.011\nsamples = 330\nvalue = [539, 3]\nclass = 0"] ;
84 -> 154 ;
155 [label="gini = 0.0\nsamples = 279\nvalue = [452, 0]\nclass = 0"] ;
154 -> 155 ;
156 [label="X[21] <= 0.34\ngini = 0.064\nsamples = 51\nvalue = [87, 3]\nclass = 0"] ;
154 -> 156 ;
157 [label="gini = 0.0\nsamples = 40\nvalue = [68, 0]\nclass = 0"] ;
156 -> 157 ;
158 [label="X[2] <= -0.166\ngini = 0.236\nsamples = 11\nvalue = [19, 3]\nclass = 0"] ;
156 -> 158 ;
159 [label="gini = 0.0\nsamples = 10\nvalue = [19, 0]\nclass = 0"] ;
158 -> 159 ;
160 [label="gini = 0.0\nsamples = 1\nvalue = [0, 3]\nclass = 1"] ;
158 -> 160 ;
161 [label="X[15] <= -1.338\ngini = 0.007\nsamples = 3289\nvalue = [5134, 18]\nclass = 0"] ;
49 -> 161 ;
162 [label="X[17] <= 1.592\ngini = 0.04\nsamples = 245\nvalue = [385, 8]\nclass = 0"] ;
161 -> 162 ;
163 [label="gini = 0.0\nsamples = 1\nvalue = [0, 2]\nclass = 1"] ;
162 -> 163 ;
164 [label="X[16] <= 1.551\ngini = 0.03\nsamples = 244\nvalue = [385, 6]\nclass = 0"] ;
162 -> 164 ;
165 [label="gini = 0.0\nsamples = 224\nvalue = [354, 0]\nclass = 0"] ;
164 -> 165 ;
166 [label="X[2] <= 1.138\ngini = 0.272\nsamples = 20\nvalue = [31, 6]\nclass = 0"] ;
164 -> 166 ;
167 [label="X[9] <= -0.065\ngini = 0.444\nsamples = 3\nvalue = [2, 4]\nclass = 1"] ;
166 -> 167 ;
168 [label="gini = 0.0\nsamples = 2\nvalue = [0, 4]\nclass = 1"] ;
167 -> 168 ;
169 [label="gini = 0.0\nsamples = 1\nvalue = [2, 0]\nclass = 0"] ;
167 -> 169 ;
170 [label="X[14] <= -2.737\ngini = 0.121\nsamples = 17\nvalue = [29, 2]\nclass = 0"] ;
166 -> 170 ;
171 [label="X[23] <= -0.041\ngini = 0.408\nsamples = 6\nvalue = [5, 2]\nclass = 0"] ;
170 -> 171 ;
172 [label="gini = 0.0\nsamples = 4\nvalue = [5, 0]\nclass = 0"] ;
171 -> 172 ;
173 [label="gini = 0.0\nsamples = 2\nvalue = [0, 2]\nclass = 1"] ;
171 -> 173 ;
174 [label="gini = 0.0\nsamples = 11\nvalue = [24, 0]\nclass = 0"] ;
170 -> 174 ;
175 [label="X[7] <= 4.006\ngini = 0.004\nsamples = 3044\nvalue = [4749, 10]\nclass = 0"] ;
161 -> 175 ;
176 [label="X[25] <= 0.52\ngini = 0.003\nsamples = 3036\nvalue = [4740, 8]\nclass = 0"] ;
175 -> 176 ;
177 [label="X[4] <= 2.783\ngini = 0.002\nsamples = 2544\nvalue = [3991, 3]\nclass = 0"] ;
176 -> 177 ;
178 [label="gini = 0.0\nsamples = 2370\nvalue = [3712, 0]\nclass = 0"] ;
177 -> 178 ;
179 [label="X[16] <= 2.058\ngini = 0.021\nsamples = 174\nvalue = [279, 3]\nclass = 0"] ;
177 -> 179 ;
180 [label="X[7] <= 1.59\ngini = 0.008\nsamples = 162\nvalue = [264, 1]\nclass = 0"] ;
179 -> 180 ;
181 [label="gini = 0.0\nsamples = 158\nvalue = [259, 0]\nclass = 0"] ;
180 -> 181 ;
182 [label="X[19] <= 1.645\ngini = 0.278\nsamples = 4\nvalue = [5, 1]\nclass = 0"] ;
180 -> 182 ;
183 [label="gini = 0.0\nsamples = 3\nvalue = [5, 0]\nclass = 0"] ;
182 -> 183 ;
184 [label="gini = 0.0\nsamples = 1\nvalue = [0, 1]\nclass = 1"] ;
182 -> 184 ;
185 [label="X[9] <= -0.719\ngini = 0.208\nsamples = 12\nvalue = [15, 2]\nclass = 0"] ;
179 -> 185 ;
186 [label="gini = 0.0\nsamples = 8\nvalue = [11, 0]\nclass = 0"] ;
185 -> 186 ;
187 [label="X[9] <= -0.606\ngini = 0.444\nsamples = 4\nvalue = [4, 2]\nclass = 0"] ;
185 -> 187 ;
188 [label="gini = 0.0\nsamples = 1\nvalue = [0, 2]\nclass = 1"] ;
187 -> 188 ;
189 [label="gini = 0.0\nsamples = 3\nvalue = [4, 0]\nclass = 0"] ;
187 -> 189 ;
190 [label="X[16] <= 1.457\ngini = 0.013\nsamples = 492\nvalue = [749, 5]\nclass = 0"] ;
176 -> 190 ;
191 [label="X[0] <= 160238.0\ngini = 0.007\nsamples = 407\nvalue = [609, 2]\nclass = 0"] ;
190 -> 191 ;
192 [label="X[4] <= 2.01\ngini = 0.004\nsamples = 374\nvalue = [561, 1]\nclass = 0"] ;
191 -> 192 ;
193 [label="gini = 0.0\nsamples = 366\nvalue = [553, 0]\nclass = 0"] ;
192 -> 193 ;
194 [label="X[8] <= 0.128\ngini = 0.198\nsamples = 8\nvalue = [8, 1]\nclass = 0"] ;
192 -> 194 ;
195 [label="gini = 0.0\nsamples = 6\nvalue = [7, 0]\nclass = 0"] ;
194 -> 195 ;
196 [label="X[2] <= 1.777\ngini = 0.5\nsamples = 2\nvalue = [1, 1]\nclass = 0"] ;
194 -> 196 ;
197 [label="gini = 0.0\nsamples = 1\nvalue = [0, 1]\nclass = 1"] ;
196 -> 197 ;
198 [label="gini = 0.0\nsamples = 1\nvalue = [1, 0]\nclass = 0"] ;
196 -> 198 ;
199 [label="X[2] <= 0.728\ngini = 0.04\nsamples = 33\nvalue = [48, 1]\nclass = 0"] ;
191 -> 199 ;
200 [label="X[2] <= 0.686\ngini = 0.165\nsamples = 7\nvalue = [10, 1]\nclass = 0"] ;
199 -> 200 ;
201 [label="gini = 0.0\nsamples = 6\nvalue = [10, 0]\nclass = 0"] ;
200 -> 201 ;
202 [label="gini = 0.0\nsamples = 1\nvalue = [0, 1]\nclass = 1"] ;
200 -> 202 ;
203 [label="gini = 0.0\nsamples = 26\nvalue = [38, 0]\nclass = 0"] ;
199 -> 203 ;
204 [label="X[4] <= 2.671\ngini = 0.041\nsamples = 85\nvalue = [140, 3]\nclass = 0"] ;
190 -> 204 ;
205 [label="gini = 0.0\nsamples = 82\nvalue = [139, 0]\nclass = 0"] ;
204 -> 205 ;
206 [label="X[17] <= 5.189\ngini = 0.375\nsamples = 3\nvalue = [1, 3]\nclass = 1"] ;
204 -> 206 ;
207 [label="gini = 0.0\nsamples = 2\nvalue = [0, 3]\nclass = 1"] ;
206 -> 207 ;
208 [label="gini = 0.0\nsamples = 1\nvalue = [1, 0]\nclass = 0"] ;
206 -> 208 ;
209 [label="X[1] <= -0.915\ngini = 0.298\nsamples = 8\nvalue = [9, 2]\nclass = 0"] ;
175 -> 209 ;
210 [label="gini = 0.0\nsamples = 7\nvalue = [9, 0]\nclass = 0"] ;
209 -> 210 ;
211 [label="gini = 0.0\nsamples = 1\nvalue = [0, 2]\nclass = 1"] ;
209 -> 211 ;
212 [label="X[14] <= -3.826\ngini = 0.007\nsamples = 5316\nvalue = [8329, 28]\nclass = 0"] ;
42 -> 212 ;
213 [label="X[18] <= -0.651\ngini = 0.391\nsamples = 13\nvalue = [4, 11]\nclass = 1"] ;
212 -> 213 ;
214 [label="gini = 0.0\nsamples = 9\nvalue = [0, 11]\nclass = 1"] ;
213 -> 214 ;
215 [label="gini = 0.0\nsamples = 4\nvalue = [4, 0]\nclass = 0"] ;
213 -> 215 ;
216 [label="X[9] <= -2.373\ngini = 0.004\nsamples = 5303\nvalue = [8325, 17]\nclass = 0"] ;
212 -> 216 ;
217 [label="X[12] <= -3.422\ngini = 0.039\nsamples = 95\nvalue = [148, 3]\nclass = 0"] ;
216 -> 217 ;
218 [label="X[18] <= 0.271\ngini = 0.49\nsamples = 2\nvalue = [4, 3]\nclass = 0"] ;
217 -> 218 ;
219 [label="gini = 0.0\nsamples = 1\nvalue = [0, 3]\nclass = 1"] ;
218 -> 219 ;
220 [label="gini = 0.0\nsamples = 1\nvalue = [4, 0]\nclass = 0"] ;
218 -> 220 ;
221 [label="gini = 0.0\nsamples = 93\nvalue = [144, 0]\nclass = 0"] ;
217 -> 221 ;
222 [label="X[29] <= 0.725\ngini = 0.003\nsamples = 5208\nvalue = [8177, 14]\nclass = 0"] ;
216 -> 222 ;
223 [label="X[14] <= 0.888\ngini = 0.102\nsamples = 61\nvalue = [88, 5]\nclass = 0"] ;
222 -> 223 ;
224 [label="gini = 0.0\nsamples = 50\nvalue = [73, 0]\nclass = 0"] ;
223 -> 224 ;
225 [label="X[21] <= 1.583\ngini = 0.375\nsamples = 11\nvalue = [15, 5]\nclass = 0"] ;
223 -> 225 ;
226 [label="X[17] <= 0.349\ngini = 0.5\nsamples = 5\nvalue = [5, 5]\nclass = 0"] ;
225 -> 226 ;
227 [label="gini = 0.0\nsamples = 2\nvalue = [0, 5]\nclass = 1"] ;
226 -> 227 ;
228 [label="gini = 0.0\nsamples = 3\nvalue = [5, 0]\nclass = 0"] ;
226 -> 228 ;
229 [label="gini = 0.0\nsamples = 6\nvalue = [10, 0]\nclass = 0"] ;
225 -> 229 ;
230 [label="X[12] <= -5.949\ngini = 0.002\nsamples = 5147\nvalue = [8089, 9]\nclass = 0"] ;
222 -> 230 ;
231 [label="X[25] <= -0.102\ngini = 0.5\nsamples = 2\nvalue = [1, 1]\nclass = 0"] ;
230 -> 231 ;
232 [label="gini = 0.0\nsamples = 1\nvalue = [0, 1]\nclass = 1"] ;
231 -> 232 ;
233 [label="gini = 0.0\nsamples = 1\nvalue = [1, 0]\nclass = 0"] ;
231 -> 233 ;
234 [label="X[25] <= -1.531\ngini = 0.002\nsamples = 5145\nvalue = [8088, 8]\nclass = 0"] ;
230 -> 234 ;
235 [label="X[1] <= 0.69\ngini = 0.028\nsamples = 137\nvalue = [210, 3]\nclass = 0"] ;
234 -> 235 ;
236 [label="X[17] <= 2.886\ngini = 0.009\nsamples = 136\nvalue = [210, 1]\nclass = 0"] ;
235 -> 236 ;
237 [label="gini = 0.0\nsamples = 135\nvalue = [210, 0]\nclass = 0"] ;
236 -> 237 ;
238 [label="gini = 0.0\nsamples = 1\nvalue = [0, 1]\nclass = 1"] ;
236 -> 238 ;
239 [label="gini = 0.0\nsamples = 1\nvalue = [0, 2]\nclass = 1"] ;
235 -> 239 ;
240 [label="X[14] <= -1.686\ngini = 0.001\nsamples = 5008\nvalue = [7878, 5]\nclass = 0"] ;
234 -> 240 ;
241 [label="X[20] <= 2.039\ngini = 0.03\nsamples = 120\nvalue = [191, 3]\nclass = 0"] ;
240 -> 241 ;
242 [label="gini = 0.0\nsamples = 117\nvalue = [186, 0]\nclass = 0"] ;
241 -> 242 ;
243 [label="X[3] <= 0.467\ngini = 0.469\nsamples = 3\nvalue = [5, 3]\nclass = 0"] ;
241 -> 243 ;
244 [label="gini = 0.0\nsamples = 2\nvalue = [5, 0]\nclass = 0"] ;
243 -> 244 ;
245 [label="gini = 0.0\nsamples = 1\nvalue = [0, 3]\nclass = 1"] ;
243 -> 245 ;
246 [label="X[17] <= 2.023\ngini = 0.001\nsamples = 4888\nvalue = [7687, 2]\nclass = 0"] ;
240 -> 246 ;
247 [label="X[8] <= -2.746\ngini = 0.0\nsamples = 4811\nvalue = [7564, 1]\nclass = 0"] ;
246 -> 247 ;
248 [label="X[23] <= -0.674\ngini = 0.002\nsamples = 814\nvalue = [1295, 1]\nclass = 0"] ;
247 -> 248 ;
249 [label="X[5] <= 3.182\ngini = 0.016\nsamples = 82\nvalue = [127, 1]\nclass = 0"] ;
248 -> 249 ;
250 [label="gini = 0.0\nsamples = 76\nvalue = [121, 0]\nclass = 0"] ;
249 -> 250 ;
251 [label="X[28] <= -0.401\ngini = 0.245\nsamples = 6\nvalue = [6, 1]\nclass = 0"] ;
249 -> 251 ;
252 [label="gini = 0.0\nsamples = 4\nvalue = [5, 0]\nclass = 0"] ;
251 -> 252 ;
253 [label="X[15] <= 0.868\ngini = 0.5\nsamples = 2\nvalue = [1, 1]\nclass = 0"] ;
251 -> 253 ;
254 [label="gini = 0.0\nsamples = 1\nvalue = [1, 0]\nclass = 0"] ;
253 -> 254 ;
255 [label="gini = 0.0\nsamples = 1\nvalue = [0, 1]\nclass = 1"] ;
253 -> 255 ;
256 [label="gini = 0.0\nsamples = 732\nvalue = [1168, 0]\nclass = 0"] ;
248 -> 256 ;
257 [label="gini = 0.0\nsamples = 3997\nvalue = [6269, 0]\nclass = 0"] ;
247 -> 257 ;
258 [label="X[17] <= 2.033\ngini = 0.016\nsamples = 77\nvalue = [123, 1]\nclass = 0"] ;
246 -> 258 ;
259 [label="gini = 0.0\nsamples = 1\nvalue = [0, 1]\nclass = 1"] ;
258 -> 259 ;
260 [label="gini = 0.0\nsamples = 76\nvalue = [123, 0]\nclass = 0"] ;
258 -> 260 ;
}