digraph Tree {
node [shape=box] ;
0 [label="X[10] <= -3.878\ngini = 0.004\nsamples = 126280\nvalue = [199257, 351]\nclass = 0"] ;
1 [label="X[17] <= -1.087\ngini = 0.47\nsamples = 224\nvalue = [132, 217]\nclass = 1"] ;
0 -> 1 [labeldistance=2.5, labelangle=45, headlabel="True"] ;
2 [label="X[3] <= -31.459\ngini = 0.251\nsamples = 155\nvalue = [35, 203]\nclass = 1"] ;
1 -> 2 ;
3 [label="gini = 0.0\nsamples = 3\nvalue = [8, 0]\nclass = 0"] ;
2 -> 3 ;
4 [label="X[27] <= 1.694\ngini = 0.207\nsamples = 152\nvalue = [27, 203]\nclass = 1"] ;
2 -> 4 ;
5 [label="X[6] <= -5.015\ngini = 0.12\nsamples = 131\nvalue = [13, 189]\nclass = 1"] ;
4 -> 5 ;
6 [label="X[26] <= -0.118\ngini = 0.5\nsamples = 3\nvalue = [3, 3]\nclass = 0"] ;
5 -> 6 ;
7 [label="gini = 0.0\nsamples = 1\nvalue = [3, 0]\nclass = 0"] ;
6 -> 7 ;
8 [label="gini = 0.0\nsamples = 2\nvalue = [0, 3]\nclass = 1"] ;
6 -> 8 ;
9 [label="X[25] <= -2.05\ngini = 0.097\nsamples = 128\nvalue = [10, 186]\nclass = 1"] ;
5 -> 9 ;
10 [label="X[17] <= -11.787\ngini = 0.444\nsamples = 2\nvalue = [2, 1]\nclass = 0"] ;
9 -> 10 ;
11 [label="gini = 0.0\nsamples = 1\nvalue = [0, 1]\nclass = 1"] ;
10 -> 11 ;
12 [label="gini = 0.0\nsamples = 1\nvalue = [2, 0]\nclass = 0"] ;
10 -> 12 ;
13 [label="X[15] <= 1.001\ngini = 0.079\nsamples = 126\nvalue = [8, 185]\nclass = 1"] ;
9 -> 13 ;
14 [label="X[9] <= 1.912\ngini = 0.048\nsamples = 108\nvalue = [4, 157]\nclass = 1"] ;
13 -> 14 ;
15 [label="X[17] <= -3.534\ngini = 0.037\nsamples = 107\nvalue = [3, 157]\nclass = 1"] ;
14 -> 15 ;
16 [label="X[14] <= -5.332\ngini = 0.015\nsamples = 92\nvalue = [1, 135]\nclass = 1"] ;
15 -> 16 ;
17 [label="gini = 0.0\nsamples = 76\nvalue = [0, 113]\nclass = 1"] ;
16 -> 17 ;
18 [label="X[3] <= -2.456\ngini = 0.083\nsamples = 16\nvalue = [1, 22]\nclass = 1"] ;
16 -> 18 ;
19 [label="gini = 0.0\nsamples = 12\nvalue = [0, 19]\nclass = 1"] ;
18 -> 19 ;
20 [label="X[11] <= 2.961\ngini = 0.375\nsamples = 4\nvalue = [1, 3]\nclass = 1"] ;
18 -> 20 ;
21 [label="gini = 0.0\nsamples = 3\nvalue = [0, 3]\nclass = 1"] ;
20 -> 21 ;
22 [label="gini = 0.0\nsamples = 1\nvalue = [1, 0]\nclass = 0"] ;
20 -> 22 ;
23 [label="X[26] <= 0.688\ngini = 0.153\nsamples = 15\nvalue = [2, 22]\nclass = 1"] ;
15 -> 23 ;
24 [label="X[27] <= -0.019\ngini = 0.083\nsamples = 14\nvalue = [1, 22]\nclass = 1"] ;
23 -> 24 ;
25 [label="X[9] <= 0.034\ngini = 0.444\nsamples = 2\nvalue = [1, 2]\nclass = 1"] ;
24 -> 25 ;
26 [label="gini = 0.0\nsamples = 1\nvalue = [1, 0]\nclass = 0"] ;
25 -> 26 ;
27 [label="gini = 0.0\nsamples = 1\nvalue = [0, 2]\nclass = 1"] ;
25 -> 27 ;
28 [label="gini = 0.0\nsamples = 12\nvalue = [0, 20]\nclass = 1"] ;
24 -> 28 ;
29 [label="gini = 0.0\nsamples = 1\nvalue = [1, 0]\nclass = 0"] ;
23 -> 29 ;
30 [label="gini = 0.0\nsamples = 1\nvalue = [1, 0]\nclass = 0"] ;
14 -> 30 ;
31 [label="X[22] <= -0.284\ngini = 0.219\nsamples = 18\nvalue = [4, 28]\nclass = 1"] ;
13 -> 31 ;
32 [label="X[9] <= -1.731\ngini = 0.444\nsamples = 7\nvalue = [4, 8]\nclass = 1"] ;
31 -> 32 ;
33 [label="X[5] <= -1.068\ngini = 0.32\nsamples = 5\nvalue = [4, 1]\nclass = 0"] ;
32 -> 33 ;
34 [label="gini = 0.0\nsamples = 4\nvalue = [4, 0]\nclass = 0"] ;
33 -> 34 ;
35 [label="gini = 0.0\nsamples = 1\nvalue = [0, 1]\nclass = 1"] ;
33 -> 35 ;
36 [label="gini = 0.0\nsamples = 2\nvalue = [0, 7]\nclass = 1"] ;
32 -> 36 ;
37 [label="gini = 0.0\nsamples = 11\nvalue = [0, 20]\nclass = 1"] ;
31 -> 37 ;
38 [label="X[20] <= 1.206\ngini = 0.5\nsamples = 21\nvalue = [14, 14]\nclass = 0"] ;
4 -> 38 ;
39 [label="gini = 0.0\nsamples = 5\nvalue = [0, 10]\nclass = 1"] ;
38 -> 39 ;
40 [label="X[28] <= 0.738\ngini = 0.346\nsamples = 16\nvalue = [14, 4]\nclass = 0"] ;
38 -> 40 ;
41 [label="gini = 0.0\nsamples = 11\nvalue = [13, 0]\nclass = 0"] ;
40 -> 41 ;
42 [label="X[8] <= 1.861\ngini = 0.32\nsamples = 5\nvalue = [1, 4]\nclass = 1"] ;
40 -> 42 ;
43 [label="gini = 0.0\nsamples = 1\nvalue = [1, 0]\nclass = 0"] ;
42 -> 43 ;
44 [label="gini = 0.0\nsamples = 4\nvalue = [0, 4]\nclass = 1"] ;
42 -> 44 ;
45 [label="X[16] <= -0.44\ngini = 0.22\nsamples = 69\nvalue = [97, 14]\nclass = 0"] ;
1 -> 45 ;
46 [label="X[22] <= -0.812\ngini = 0.278\nsamples = 8\nvalue = [2, 10]\nclass = 1"] ;
45 -> 46 ;
47 [label="gini = 0.0\nsamples = 2\nvalue = [2, 0]\nclass = 0"] ;
46 -> 47 ;
48 [label="gini = 0.0\nsamples = 6\nvalue = [0, 10]\nclass = 1"] ;
46 -> 48 ;
49 [label="X[6] <= -0.158\ngini = 0.078\nsamples = 61\nvalue = [95, 4]\nclass = 0"] ;
45 -> 49 ;
50 [label="gini = 0.0\nsamples = 2\nvalue = [0, 4]\nclass = 1"] ;
49 -> 50 ;
51 [label="gini = 0.0\nsamples = 59\nvalue = [95, 0]\nclass = 0"] ;
49 -> 51 ;
52 [label="X[12] <= -4.572\ngini = 0.001\nsamples = 126056\nvalue = [199125, 134]\nclass = 0"] ;
0 -> 52 [labeldistance=2.5, labelangle=-45, headlabel="False"] ;
53 [label="X[12] <= -5.836\ngini = 0.482\nsamples = 24\nvalue = [15, 22]\nclass = 1"] ;
52 -> 53 ;
54 [label="X[16] <= -1.948\ngini = 0.153\nsamples = 9\nvalue = [1, 11]\nclass = 1"] ;
53 -> 54 ;
55 [label="gini = 0.0\nsamples = 8\nvalue = [0, 11]\nclass = 1"] ;
54 -> 55 ;
56 [label="gini = 0.0\nsamples = 1\nvalue = [1, 0]\nclass = 0"] ;
54 -> 56 ;
57 [label="X[26] <= 0.44\ngini = 0.493\nsamples = 15\nvalue = [14, 11]\nclass = 0"] ;
53 -> 57 ;
58 [label="X[29] <= 24.445\ngini = 0.305\nsamples = 11\nvalue = [13, 3]\nclass = 0"] ;
57 -> 58 ;
59 [label="X[25] <= -0.073\ngini = 0.142\nsamples = 8\nvalue = [12, 1]\nclass = 0"] ;
58 -> 59 ;
60 [label="X[10] <= -1.361\ngini = 0.5\nsamples = 2\nvalue = [1, 1]\nclass = 0"] ;
59 -> 60 ;
61 [label="gini = 0.0\nsamples = 1\nvalue = [0, 1]\nclass = 1"] ;
60 -> 61 ;
62 [label="gini = 0.0\nsamples = 1\nvalue = [1, 0]\nclass = 0"] ;
60 -> 62 ;
63 [label="gini = 0.0\nsamples = 6\nvalue = [11, 0]\nclass = 0"] ;
59 -> 63 ;
64 [label="X[6] <= -0.428\ngini = 0.444\nsamples = 3\nvalue = [1, 2]\nclass = 1"] ;
58 -> 64 ;
65 [label="gini = 0.0\nsamples = 2\nvalue = [0, 2]\nclass = 1"] ;
64 -> 65 ;
66 [label="gini = 0.0\nsamples = 1\nvalue = [1, 0]\nclass = 0"] ;
64 -> 66 ;
67 [label="X[20] <= 0.177\ngini = 0.198\nsamples = 4\nvalue = [1, 8]\nclass = 1"] ;
57 -> 67 ;
68 [label="gini = 0.0\nsamples = 3\nvalue = [0, 8]\nclass = 1"] ;
67 -> 68 ;
69 [label="gini = 0.0\nsamples = 1\nvalue = [1, 0]\nclass = 0"] ;
67 -> 69 ;
70 [label="X[14] <= -4.424\ngini = 0.001\nsamples = 126032\nvalue = [199110, 112]\nclass = 0"] ;
52 -> 70 ;
71 [label="X[17] <= -3.26\ngini = 0.291\nsamples = 164\nvalue = [210, 45]\nclass = 0"] ;
70 -> 71 ;
72 [label="gini = 0.0\nsamples = 9\nvalue = [0, 19]\nclass = 1"] ;
71 -> 72 ;
73 [label="X[10] <= -1.818\ngini = 0.196\nsamples = 155\nvalue = [210, 26]\nclass = 0"] ;
71 -> 73 ;
74 [label="X[24] <= -0.569\ngini = 0.438\nsamples = 28\nvalue = [11, 23]\nclass = 1"] ;
73 -> 74 ;
75 [label="X[14] <= -7.984\ngini = 0.18\nsamples = 10\nvalue = [9, 1]\nclass = 0"] ;
74 -> 75 ;
76 [label="gini = 0.0\nsamples = 1\nvalue = [0, 1]\nclass = 1"] ;
75 -> 76 ;
77 [label="gini = 0.0\nsamples = 9\nvalue = [9, 0]\nclass = 0"] ;
75 -> 77 ;
78 [label="X[8] <= 0.887\ngini = 0.153\nsamples = 18\nvalue = [2, 22]\nclass = 1"] ;
74 -> 78 ;
79 [label="gini = 0.0\nsamples = 17\nvalue = [0, 22]\nclass = 1"] ;
78 -> 79 ;
80 [label="gini = 0.0\nsamples = 1\nvalue = [2, 0]\nclass = 0"] ;
78 -> 80 ;
81 [label="X[0] <= 139737.5\ngini = 0.029\nsamples = 127\nvalue = [199, 3]\nclass = 0"] ;
73 -> 81 ;
82 [label="gini = 0.0\nsamples = 104\nvalue = [168, 0]\nclass = 0"] ;
81 -> 82 ;
83 [label="X[14] <= -7.415\ngini = 0.161\nsamples = 23\nvalue = [31, 3]\nclass = 0"] ;
81 -> 83 ;
84 [label="gini = 0.0\nsamples = 1\nvalue = [0, 2]\nclass = 1"] ;
83 -> 84 ;
85 [label="X[20] <= 0.232\ngini = 0.061\nsamples = 22\nvalue = [31, 1]\nclass = 0"] ;
83 -> 85 ;
86 [label="X[20] <= 0.069\ngini = 0.219\nsamples = 7\nvalue = [7, 1]\nclass = 0"] ;
85 -> 86 ;
87 [label="gini = 0.0\nsamples = 6\nvalue = [7, 0]\nclass = 0"] ;
86 -> 87 ;
88 [label="gini = 0.0\nsamples = 1\nvalue = [0, 1]\nclass = 1"] ;
86 -> 88 ;
89 [label="gini = 0.0\nsamples = 15\nvalue = [24, 0]\nclass = 0"] ;
85 -> 89 ;
90 [label="X[6] <= -5.419\ngini = 0.001\nsamples = 125868\nvalue = [198900, 67]\nclass = 0"] ;
70 -> 90 ;
91 [label="X[14] <= 3.128\ngini = 0.034\nsamples = 108\nvalue = [168, 3]\nclass = 0"] ;
90 -> 91 ;
92 [label="X[0] <= 164680.0\ngini = 0.012\nsamples = 106\nvalue = [167, 1]\nclass = 0"] ;
91 -> 92 ;
93 [label="gini = 0.0\nsamples = 102\nvalue = [163, 0]\nclass = 0"] ;
92 -> 93 ;
94 [label="X[1] <= -6.688\ngini = 0.32\nsamples = 4\nvalue = [4, 1]\nclass = 0"] ;
92 -> 94 ;
95 [label="gini = 0.0\nsamples = 3\nvalue = [4, 0]\nclass = 0"] ;
94 -> 95 ;
96 [label="gini = 0.0\nsamples = 1\nvalue = [0, 1]\nclass = 1"] ;
94 -> 96 ;
97 [label="X[21] <= 3.206\ngini = 0.444\nsamples = 2\nvalue = [1, 2]\nclass = 1"] ;
91 -> 97 ;
98 [label="gini = 0.0\nsamples = 1\nvalue = [0, 2]\nclass = 1"] ;
97 -> 98 ;
99 [label="gini = 0.0\nsamples = 1\nvalue = [1, 0]\nclass = 0"] ;
97 -> 99 ;
100 [label="X[4] <= 2.676\ngini = 0.001\nsamples = 125760\nvalue = [198732, 64]\nclass = 0"] ;
90 -> 100 ;
101 [label="X[7] <= 3.79\ngini = 0.0\nsamples = 120288\nvalue = [190097, 35]\nclass = 0"] ;
100 -> 101 ;
102 [label="X[11] <= 2.778\ngini = 0.0\nsamples = 119826\nvalue = [189382, 31]\nclass = 0"] ;
101 -> 102 ;
103 [label="X[20] <= -1.028\ngini = 0.0\nsamples = 119627\nvalue = [189078, 29]\nclass = 0"] ;
102 -> 103 ;
104 [label="X[13] <= -1.876\ngini = 0.005\nsamples = 1887\nvalue = [2990, 7]\nclass = 0"] ;
103 -> 104 ;
105 [label="X[5] <= 1.619\ngini = 0.18\nsamples = 31\nvalue = [45, 5]\nclass = 0"] ;
104 -> 105 ;
106 [label="X[26] <= 0.506\ngini = 0.085\nsamples = 28\nvalue = [43, 2]\nclass = 0"] ;
105 -> 106 ;
107 [label="gini = 0.0\nsamples = 22\nvalue = [31, 0]\nclass = 0"] ;
106 -> 107 ;
108 [label="X[18] <= 0.147\ngini = 0.245\nsamples = 6\nvalue = [12, 2]\nclass = 0"] ;
106 -> 108 ;
109 [label="gini = 0.0\nsamples = 4\nvalue = [9, 0]\nclass = 0"] ;
108 -> 109 ;
110 [label="X[3] <= -0.166\ngini = 0.48\nsamples = 2\nvalue = [3, 2]\nclass = 0"] ;
108 -> 110 ;
111 [label="gini = 0.0\nsamples = 1\nvalue = [3, 0]\nclass = 0"] ;
110 -> 111 ;
112 [label="gini = 0.0\nsamples = 1\nvalue = [0, 2]\nclass = 1"] ;
110 -> 112 ;
113 [label="X[8] <= -0.838\ngini = 0.48\nsamples = 3\nvalue = [2, 3]\nclass = 1"] ;
105 -> 113 ;
114 [label="gini = 0.0\nsamples = 2\nvalue = [0, 3]\nclass = 1"] ;
113 -> 114 ;
115 [label="gini = 0.0\nsamples = 1\nvalue = [2, 0]\nclass = 0"] ;
113 -> 115 ;
116 [label="X[14] <= -1.577\ngini = 0.001\nsamples = 1856\nvalue = [2945, 2]\nclass = 0"] ;
104 -> 116 ;
117 [label="X[12] <= -1.989\ngini = 0.016\nsamples = 153\nvalue = [250, 2]\nclass = 0"] ;
116 -> 117 ;
118 [label="X[2] <= 2.638\ngini = 0.48\nsamples = 4\nvalue = [3, 2]\nclass = 0"] ;
117 -> 118 ;
119 [label="gini = 0.0\nsamples = 2\nvalue = [3, 0]\nclass = 0"] ;
118 -> 119 ;
120 [label="gini = 0.0\nsamples = 2\nvalue = [0, 2]\nclass = 1"] ;
118 -> 120 ;
121 [label="gini = 0.0\nsamples = 149\nvalue = [247, 0]\nclass = 0"] ;
117 -> 121 ;
122 [label="gini = 0.0\nsamples = 1703\nvalue = [2695, 0]\nclass = 0"] ;
116 -> 122 ;
123 [label="X[14] <= -3.565\ngini = 0.0\nsamples = 117740\nvalue = [186088, 22]\nclass = 0"] ;
103 -> 123 ;
124 [label="X[7] <= 0.008\ngini = 0.026\nsamples = 149\nvalue = [228, 3]\nclass = 0"] ;
123 -> 124 ;
125 [label="X[15] <= 0.479\ngini = 0.469\nsamples = 7\nvalue = [5, 3]\nclass = 0"] ;
124 -> 125 ;
126 [label="X[22] <= -0.339\ngini = 0.375\nsamples = 3\nvalue = [1, 3]\nclass = 1"] ;
125 -> 126 ;
127 [label="gini = 0.0\nsamples = 1\nvalue = [1, 0]\nclass = 0"] ;
126 -> 127 ;
128 [label="gini = 0.0\nsamples = 2\nvalue = [0, 3]\nclass = 1"] ;
126 -> 128 ;
129 [label="gini = 0.0\nsamples = 4\nvalue = [4, 0]\nclass = 0"] ;
125 -> 129 ;
130 [label="gini = 0.0\nsamples = 142\nvalue = [223, 0]\nclass = 0"] ;
124 -> 130 ;
131 [label="X[7] <= 1.133\ngini = 0.0\nsamples = 117591\nvalue = [185860, 19]\nclass = 0"] ;
123 -> 131 ;
132 [label="X[17] <= 0.831\ngini = 0.0\nsamples = 108875\nvalue = [172042, 11]\nclass = 0"] ;
131 -> 132 ;
133 [label="X[23] <= 1.375\ngini = 0.0\nsamples = 96822\nvalue = [152882, 4]\nclass = 0"] ;
132 -> 133 ;
134 [label="X[29] <= 1.525\ngini = 0.0\nsamples = 96536\nvalue = [152442, 3]\nclass = 0"] ;
133 -> 134 ;
135 [label="X[12] <= 0.687\ngini = 0.0\nsamples = 11853\nvalue = [18579, 3]\nclass = 0"] ;
134 -> 135 ;
136 [label="gini = 0.0\nsamples = 8605\nvalue = [13475, 0]\nclass = 0"] ;
135 -> 136 ;
137 [label="X[15] <= 0.934\ngini = 0.001\nsamples = 3248\nvalue = [5104, 3]\nclass = 0"] ;
135 -> 137 ;
138 [label="X[9] <= -0.673\ngini = 0.0\nsamples = 2963\nvalue = [4645, 1]\nclass = 0"] ;
137 -> 138 ;
139 [label="X[29] <= 1.51\ngini = 0.005\nsamples = 263\nvalue = [396, 1]\nclass = 0"] ;
138 -> 139 ;
140 [label="gini = 0.0\nsamples = 260\nvalue = [394, 0]\nclass = 0"] ;
139 -> 140 ;
141 [label="X[11] <= 0.948\ngini = 0.444\nsamples = 3\nvalue = [2, 1]\nclass = 0"] ;
139 -> 141 ;
142 [label="gini = 0.0\nsamples = 2\nvalue = [2, 0]\nclass = 0"] ;
141 -> 142 ;
143 [label="gini = 0.0\nsamples = 1\nvalue = [0, 1]\nclass = 1"] ;
141 -> 143 ;
144 [label="gini = 0.0\nsamples = 2700\nvalue = [4249, 0]\nclass = 0"] ;
138 -> 144 ;
145 [label="X[15] <= 0.934\ngini = 0.009\nsamples = 285\nvalue = [459, 2]\nclass = 0"] ;
137 -> 145 ;
146 [label="gini = 0.0\nsamples = 1\nvalue = [0, 1]\nclass = 1"] ;
145 -> 146 ;
147 [label="X[12] <= 0.689\ngini = 0.004\nsamples = 284\nvalue = [459, 1]\nclass = 0"] ;
145 -> 147 ;
148 [label="gini = 0.0\nsamples = 1\nvalue = [0, 1]\nclass = 1"] ;
147 -> 148 ;
149 [label="gini = 0.0\nsamples = 283\nvalue = [459, 0]\nclass = 0"] ;
147 -> 149 ;
150 [label="gini = 0.0\nsamples = 84683\nvalue = [133863, 0]\nclass = 0"] ;
134 -> 150 ;
151 [label="X[19] <= 0.277\ngini = 0.005\nsamples = 286\nvalue = [440, 1]\nclass = 0"] ;
133 -> 151 ;
152 [label="gini = 0.0\nsamples = 186\nvalue = [289, 0]\nclass = 0"] ;
151 -> 152 ;
153 [label="X[15] <= 1.941\ngini = 0.013\nsamples = 100\nvalue = [151, 1]\nclass = 0"] ;
151 -> 153 ;
154 [label="gini = 0.0\nsamples = 97\nvalue = [149, 0]\nclass = 0"] ;
153 -> 154 ;
155 [label="X[16] <= 0.06\ngini = 0.444\nsamples = 3\nvalue = [2, 1]\nclass = 0"] ;
153 -> 155 ;
156 [label="gini = 0.0\nsamples = 2\nvalue = [2, 0]\nclass = 0"] ;
155 -> 156 ;
157 [label="gini = 0.0\nsamples = 1\nvalue = [0, 1]\nclass = 1"] ;
155 -> 157 ;
158 [label="X[16] <= 0.201\ngini = 0.001\nsamples = 12053\nvalue = [19160, 7]\nclass = 0"] ;
132 -> 158 ;
159 [label="gini = 0.0\nsamples = 7276\nvalue = [11584, 0]\nclass = 0"] ;
158 -> 159 ;
160 [label="X[17] <= 0.831\ngini = 0.002\nsamples = 4777\nvalue = [7576, 7]\nclass = 0"] ;
158 -> 160 ;
161 [label="gini = 0.0\nsamples = 1\nvalue = [0, 2]\nclass = 1"] ;
160 -> 161 ;
162 [label="X[21] <= -0.334\ngini = 0.001\nsamples = 4776\nvalue = [7576, 5]\nclass = 0"] ;
160 -> 162 ;
163 [label="X[16] <= 0.281\ngini = 0.008\nsamples = 443\nvalue = [705, 3]\nclass = 0"] ;
162 -> 163 ;
164 [label="X[21] <= -0.344\ngini = 0.078\nsamples = 46\nvalue = [71, 3]\nclass = 0"] ;
163 -> 164 ;
165 [label="gini = 0.0\nsamples = 45\nvalue = [71, 0]\nclass = 0"] ;
164 -> 165 ;
166 [label="gini = 0.0\nsamples = 1\nvalue = [0, 3]\nclass = 1"] ;
164 -> 166 ;
167 [label="gini = 0.0\nsamples = 397\nvalue = [634, 0]\nclass = 0"] ;
163 -> 167 ;
168 [label="X[16] <= 0.201\ngini = 0.001\nsamples = 4333\nvalue = [6871, 2]\nclass = 0"] ;
162 -> 168 ;
169 [label="gini = 0.0\nsamples = 1\nvalue = [0, 1]\nclass = 1"] ;
168 -> 169 ;
170 [label="X[29] <= 0.765\ngini = 0.0\nsamples = 4332\nvalue = [6871, 1]\nclass = 0"] ;
168 -> 170 ;
171 [label="X[12] <= 0.648\ngini = 0.003\nsamples = 428\nvalue = [692, 1]\nclass = 0"] ;
170 -> 171 ;
172 [label="gini = 0.0\nsamples = 366\nvalue = [605, 0]\nclass = 0"] ;
171 -> 172 ;
173 [label="X[13] <= -0.215\ngini = 0.022\nsamples = 62\nvalue = [87, 1]\nclass = 0"] ;
171 -> 173 ;
174 [label="X[3] <= -0.787\ngini = 0.278\nsamples = 6\nvalue = [5, 1]\nclass = 0"] ;
173 -> 174 ;
175 [label="gini = 0.0\nsamples = 5\nvalue = [5, 0]\nclass = 0"] ;
174 -> 175 ;
176 [label="gini = 0.0\nsamples = 1\nvalue = [0, 1]\nclass = 1"] ;
174 -> 176 ;
177 [label="gini = 0.0\nsamples = 56\nvalue = [82, 0]\nclass = 0"] ;
173 -> 177 ;
178 [label="gini = 0.0\nsamples = 3904\nvalue = [6179, 0]\nclass = 0"] ;
170 -> 178 ;
179 [label="X[0] <= 156680.5\ngini = 0.001\nsamples = 8716\nvalue = [13818, 8]\nclass = 0"] ;
131 -> 179 ;
180 [label="X[19] <= 0.477\ngini = 0.0\nsamples = 7538\nvalue = [11964, 2]\nclass = 0"] ;
179 -> 180 ;
181 [label="gini = 0.0\nsamples = 5800\nvalue = [9202, 0]\nclass = 0"] ;
180 -> 181 ;
182 [label="X[13] <= -2.131\ngini = 0.001\nsamples = 1738\nvalue = [2762, 2]\nclass = 0"] ;
180 -> 182 ;
183 [label="X[16] <= -0.005\ngini = 0.049\nsamples = 25\nvalue = [39, 1]\nclass = 0"] ;
182 -> 183 ;
184 [label="gini = 0.0\nsamples = 24\nvalue = [39, 0]\nclass = 0"] ;
183 -> 184 ;
185 [label="gini = 0.0\nsamples = 1\nvalue = [0, 1]\nclass = 1"] ;
183 -> 185 ;
186 [label="X[19] <= 1.164\ngini = 0.001\nsamples = 1713\nvalue = [2723, 1]\nclass = 0"] ;
182 -> 186 ;
187 [label="gini = 0.0\nsamples = 1234\nvalue = [1950, 0]\nclass = 0"] ;
186 -> 187 ;
188 [label="X[8] <= -0.137\ngini = 0.003\nsamples = 479\nvalue = [773, 1]\nclass = 0"] ;
186 -> 188 ;
189 [label="gini = 0.0\nsamples = 359\nvalue = [584, 0]\nclass = 0"] ;
188 -> 189 ;
190 [label="X[4] <= 1.381\ngini = 0.01\nsamples = 120\nvalue = [189, 1]\nclass = 0"] ;
188 -> 190 ;
191 [label="gini = 0.0\nsamples = 104\nvalue = [170, 0]\nclass = 0"] ;
190 -> 191 ;
192 [label="X[21] <= 0.28\ngini = 0.095\nsamples = 16\nvalue = [19, 1]\nclass = 0"] ;
190 -> 192 ;
193 [label="gini = 0.0\nsamples = 14\nvalue = [18, 0]\nclass = 0"] ;
192 -> 193 ;
194 [label="X[2] <= -1.173\ngini = 0.5\nsamples = 2\nvalue = [1, 1]\nclass = 0"] ;
192 -> 194 ;
195 [label="gini = 0.0\nsamples = 1\nvalue = [1, 0]\nclass = 0"] ;
194 -> 195 ;
196 [label="gini = 0.0\nsamples = 1\nvalue = [0, 1]\nclass = 1"] ;
194 -> 196 ;
197 [label="X[17] <= 1.713\ngini = 0.006\nsamples = 1178\nvalue = [1854, 6]\nclass = 0"] ;
179 -> 197 ;
198 [label="X[14] <= -1.807\ngini = 0.003\nsamples = 1148\nvalue = [1806, 3]\nclass = 0"] ;
197 -> 198 ;
199 [label="X[22] <= -0.222\ngini = 0.087\nsamples = 41\nvalue = [63, 3]\nclass = 0"] ;
198 -> 199 ;
200 [label="X[11] <= -0.654\ngini = 0.337\nsamples = 9\nvalue = [11, 3]\nclass = 0"] ;
199 -> 200 ;
201 [label="gini = 0.0\nsamples = 1\nvalue = [0, 3]\nclass = 1"] ;
200 -> 201 ;
202 [label="gini = 0.0\nsamples = 8\nvalue = [11, 0]\nclass = 0"] ;
200 -> 202 ;
203 [label="gini = 0.0\nsamples = 32\nvalue = [52, 0]\nclass = 0"] ;
199 -> 203 ;
204 [label="gini = 0.0\nsamples = 1107\nvalue = [1743, 0]\nclass = 0"] ;
198 -> 204 ;
205 [label="X[7] <= 1.144\ngini = 0.111\nsamples = 30\nvalue = [48, 3]\nclass = 0"] ;
197 -> 205 ;
206 [label="gini = 0.0\nsamples = 1\nvalue = [0, 3]\nclass = 1"] ;
205 -> 206 ;
207 [label="gini = 0.0\nsamples = 29\nvalue = [48, 0]\nclass = 0"] ;
205 -> 207 ;
208 [label="X[16] <= -2.593\ngini = 0.013\nsamples = 199\nvalue = [304, 2]\nclass = 0"] ;
102 -> 208 ;
209 [label="gini = 0.0\nsamples = 2\nvalue = [0, 2]\nclass = 1"] ;
208 -> 209 ;
210 [label="gini = 0.0\nsamples = 197\nvalue = [304, 0]\nclass = 0"] ;
208 -> 210 ;
211 [label="X[7] <= 3.795\ngini = 0.011\nsamples = 462\nvalue = [715, 4]\nclass = 0"] ;
101 -> 211 ;
212 [label="gini = 0.0\nsamples = 2\nvalue = [0, 3]\nclass = 1"] ;
211 -> 212 ;
213 [label="X[29] <= 481.12\ngini = 0.003\nsamples = 460\nvalue = [715, 1]\nclass = 0"] ;
211 -> 213 ;
214 [label="X[11] <= -0.234\ngini = 0.095\nsamples = 15\nvalue = [19, 1]\nclass = 0"] ;
213 -> 214 ;
215 [label="gini = 0.0\nsamples = 1\nvalue = [0, 1]\nclass = 1"] ;
214 -> 215 ;
216 [label="gini = 0.0\nsamples = 14\nvalue = [19, 0]\nclass = 0"] ;
214 -> 216 ;
217 [label="gini = 0.0\nsamples = 445\nvalue = [696, 0]\nclass = 0"] ;
213 -> 217 ;
218 [label="X[16] <= -2.736\ngini = 0.007\nsamples = 5472\nvalue = [8635, 29]\nclass = 0"] ;
100 -> 218 ;
219 [label="gini = 0.0\nsamples = 1\nvalue = [0, 2]\nclass = 1"] ;
218 -> 219 ;
220 [label="X[16] <= 1.457\ngini = 0.006\nsamples = 5471\nvalue = [8635, 27]\nclass = 0"] ;
218 -> 220 ;
221 [label="X[0] <= 110120.5\ngini = 0.003\nsamples = 4961\nvalue = [7828, 12]\nclass = 0"] ;
220 -> 221 ;
222 [label="X[7] <= 5.628\ngini = 0.006\nsamples = 2358\nvalue = [3698, 12]\nclass = 0"] ;
221 -> 222 ;
223 [label="X[17] <= 1.521\ngini = 0.005\nsamples = 2344\nvalue = [3681, 9]\nclass = 0"] ;
222 -> 223 ;
224 [label="X[8] <= -2.414\ngini = 0.002\nsamples = 2234\nvalue = [3494, 4]\nclass = 0"] ;
223 -> 224 ;
225 [label="X[8] <= -2.425\ngini = 0.031\nsamples = 82\nvalue = [123, 2]\nclass = 0"] ;
224 -> 225 ;
226 [label="X[26] <= -0.069\ngini = 0.016\nsamples = 81\nvalue = [123, 1]\nclass = 0"] ;
225 -> 226 ;
227 [label="X[25] <= -0.791\ngini = 0.245\nsamples = 4\nvalue = [6, 1]\nclass = 0"] ;
226 -> 227 ;
228 [label="gini = 0.0\nsamples = 3\nvalue = [6, 0]\nclass = 0"] ;
227 -> 228 ;
229 [label="gini = 0.0\nsamples = 1\nvalue = [0, 1]\nclass = 1"] ;
227 -> 229 ;
230 [label="gini = 0.0\nsamples = 77\nvalue = [117, 0]\nclass = 0"] ;
226 -> 230 ;
231 [label="gini = 0.0\nsamples = 1\nvalue = [0, 1]\nclass = 1"] ;
225 -> 231 ;
232 [label="X[23] <= 0.22\ngini = 0.001\nsamples = 2152\nvalue = [3371, 2]\nclass = 0"] ;
224 -> 232 ;
233 [label="gini = 0.0\nsamples = 1786\nvalue = [2788, 0]\nclass = 0"] ;
232 -> 233 ;
234 [label="X[1] <= 1.933\ngini = 0.007\nsamples = 366\nvalue = [583, 2]\nclass = 0"] ;
232 -> 234 ;
235 [label="gini = 0.0\nsamples = 361\nvalue = [578, 0]\nclass = 0"] ;
234 -> 235 ;
236 [label="X[23] <= 0.273\ngini = 0.408\nsamples = 5\nvalue = [5, 2]\nclass = 0"] ;
234 -> 236 ;
237 [label="gini = 0.0\nsamples = 1\nvalue = [0, 2]\nclass = 1"] ;
236 -> 237 ;
238 [label="gini = 0.0\nsamples = 4\nvalue = [5, 0]\nclass = 0"] ;
236 -> 238 ;
239 [label="X[19] <= 2.176\ngini = 0.051\nsamples = 110\nvalue = [187, 5]\nclass = 0"] ;
223 -> 239 ;
240 [label="X[13] <= -1.826\ngini = 0.041\nsamples = 109\nvalue = [187, 4]\nclass = 0"] ;
239 -> 240 ;
241 [label="gini = 0.0\nsamples = 1\nvalue = [0, 1]\nclass = 1"] ;
240 -> 241 ;
242 [label="X[29] <= 3.795\ngini = 0.031\nsamples = 108\nvalue = [187, 3]\nclass = 0"] ;
240 -> 242 ;
243 [label="X[6] <= -0.158\ngini = 0.18\nsamples = 20\nvalue = [27, 3]\nclass = 0"] ;
242 -> 243 ;
244 [label="X[17] <= 1.881\ngini = 0.48\nsamples = 4\nvalue = [2, 3]\nclass = 1"] ;
243 -> 244 ;
245 [label="gini = 0.0\nsamples = 2\nvalue = [0, 3]\nclass = 1"] ;
244 -> 245 ;
246 [label="gini = 0.0\nsamples = 2\nvalue = [2, 0]\nclass = 0"] ;
244 -> 246 ;
247 [label="gini = 0.0\nsamples = 16\nvalue = [25, 0]\nclass = 0"] ;
243 -> 247 ;
248 [label="gini = 0.0\nsamples = 88\nvalue = [160, 0]\nclass = 0"] ;
242 -> 248 ;
249 [label="gini = 0.0\nsamples = 1\nvalue = [0, 1]\nclass = 1"] ;
239 -> 249 ;
250 [label="X[2] <= -1.094\ngini = 0.255\nsamples = 14\nvalue = [17, 3]\nclass = 0"] ;
222 -> 250 ;
251 [label="gini = 0.0\nsamples = 13\nvalue = [17, 0]\nclass = 0"] ;
250 -> 251 ;
252 [label="gini = 0.0\nsamples = 1\nvalue = [0, 3]\nclass = 1"] ;
250 -> 252 ;
253 [label="gini = 0.0\nsamples = 2603\nvalue = [4130, 0]\nclass = 0"] ;
221 -> 253 ;
254 [label="X[0] <= 25529.0\ngini = 0.036\nsamples = 510\nvalue = [807, 15]\nclass = 0"] ;
220 -> 254 ;
255 [label="X[22] <= -0.402\ngini = 0.388\nsamples = 10\nvalue = [14, 5]\nclass = 0"] ;
254 -> 255 ;
256 [label="gini = 0.0\nsamples = 2\nvalue = [0, 5]\nclass = 1"] ;
255 -> 256 ;
257 [label="gini = 0.0\nsamples = 8\nvalue = [14, 0]\nclass = 0"] ;
255 -> 257 ;
258 [label="X[17] <= 1.709\ngini = 0.025\nsamples = 500\nvalue = [793, 10]\nclass = 0"] ;
254 -> 258 ;
259 [label="X[21] <= 0.302\ngini = 0.008\nsamples = 457\nvalue = [731, 3]\nclass = 0"] ;
258 -> 259 ;
260 [label="X[5] <= 1.659\ngini = 0.003\nsamples = 384\nvalue = [619, 1]\nclass = 0"] ;
259 -> 260 ;
261 [label="gini = 0.0\nsamples = 331\nvalue = [538, 0]\nclass = 0"] ;
260 -> 261 ;
262 [label="X[1] <= 1.909\ngini = 0.024\nsamples = 53\nvalue = [81, 1]\nclass = 0"] ;
260 -> 262 ;
263 [label="gini = 0.0\nsamples = 49\nvalue = [77, 0]\nclass = 0"] ;
262 -> 263 ;
264 [label="X[27] <= -0.02\ngini = 0.32\nsamples = 4\nvalue = [4, 1]\nclass = 0"] ;
262 -> 264 ;
265 [label="gini = 0.0\nsamples = 3\nvalue = [4, 0]\nclass = 0"] ;
264 -> 265 ;
266 [label="gini = 0.0\nsamples = 1\nvalue = [0, 1]\nclass = 1"] ;
264 -> 266 ;
267 [label="X[3] <= -1.75\ngini = 0.034\nsamples = 73\nvalue = [112, 2]\nclass = 0"] ;
259 -> 267 ;
268 [label="X[14] <= -1.142\ngini = 0.219\nsamples = 11\nvalue = [14, 2]\nclass = 0"] ;
267 -> 268 ;
269 [label="gini = 0.0\nsamples = 1\nvalue = [0, 2]\nclass = 1"] ;
268 -> 269 ;
270 [label="gini = 0.0\nsamples = 10\nvalue = [14, 0]\nclass = 0"] ;
268 -> 270 ;
271 [label="gini = 0.0\nsamples = 62\nvalue = [98, 0]\nclass = 0"] ;
267 -> 271 ;
272 [label="X[20] <= 0.928\ngini = 0.182\nsamples = 43\nvalue = [62, 7]\nclass = 0"] ;
258 -> 272 ;
273 [label="X[0] <= 123007.5\ngini = 0.138\nsamples = 42\nvalue = [62, 5]\nclass = 0"] ;
272 -> 273 ;
274 [label="gini = 0.0\nsamples = 32\nvalue = [52, 0]\nclass = 0"] ;
273 -> 274 ;
275 [label="X[29] <= 5.405\ngini = 0.444\nsamples = 10\nvalue = [10, 5]\nclass = 0"] ;
273 -> 275 ;
276 [label="X[8] <= -0.2\ngini = 0.408\nsamples = 5\nvalue = [2, 5]\nclass = 1"] ;
275 -> 276 ;
277 [label="gini = 0.0\nsamples = 2\nvalue = [2, 0]\nclass = 0"] ;
276 -> 277 ;
278 [label="gini = 0.0\nsamples = 3\nvalue = [0, 5]\nclass = 1"] ;
276 -> 278 ;
279 [label="gini = 0.0\nsamples = 5\nvalue = [8, 0]\nclass = 0"] ;
275 -> 279 ;
280 [label="gini = 0.0\nsamples = 1\nvalue = [0, 2]\nclass = 1"] ;
272 -> 280 ;
}