digraph Tree {
node [shape=box] ;
0 [label="X[6] <= -6.093\ngini = 0.003\nsamples = 126091\nvalue = [199157, 343]\nclass = 0"] ;
1 [label="X[3] <= -2.485\ngini = 0.403\nsamples = 183\nvalue = [79, 203]\nclass = 1"] ;
0 -> 1 [labeldistance=2.5, labelangle=45, headlabel="True"] ;
2 [label="X[1] <= 1.008\ngini = 0.153\nsamples = 143\nvalue = [18, 197]\nclass = 1"] ;
1 -> 2 ;
3 [label="X[9] <= 0.851\ngini = 0.116\nsamples = 140\nvalue = [13, 197]\nclass = 1"] ;
2 -> 3 ;
4 [label="gini = 0.0\nsamples = 90\nvalue = [0, 138]\nclass = 1"] ;
3 -> 4 ;
5 [label="X[2] <= -3.41\ngini = 0.296\nsamples = 50\nvalue = [13, 59]\nclass = 1"] ;
3 -> 5 ;
6 [label="X[0] <= 6.081\ngini = 0.073\nsamples = 32\nvalue = [2, 51]\nclass = 1"] ;
5 -> 6 ;
7 [label="X[9] <= 1.645\ngini = 0.278\nsamples = 10\nvalue = [2, 10]\nclass = 1"] ;
6 -> 7 ;
8 [label="gini = 0.0\nsamples = 8\nvalue = [0, 8]\nclass = 1"] ;
7 -> 8 ;
9 [label="X[3] <= -11.354\ngini = 0.5\nsamples = 2\nvalue = [2, 2]\nclass = 0"] ;
7 -> 9 ;
10 [label="gini = 0.0\nsamples = 1\nvalue = [0, 2]\nclass = 1"] ;
9 -> 10 ;
11 [label="gini = 0.0\nsamples = 1\nvalue = [2, 0]\nclass = 0"] ;
9 -> 11 ;
12 [label="gini = 0.0\nsamples = 22\nvalue = [0, 41]\nclass = 1"] ;
6 -> 12 ;
13 [label="X[7] <= -5.031\ngini = 0.488\nsamples = 18\nvalue = [11, 8]\nclass = 0"] ;
5 -> 13 ;
14 [label="X[1] <= -13.475\ngini = 0.153\nsamples = 12\nvalue = [11, 1]\nclass = 0"] ;
13 -> 14 ;
15 [label="gini = 0.0\nsamples = 1\nvalue = [0, 1]\nclass = 1"] ;
14 -> 15 ;
16 [label="gini = 0.0\nsamples = 11\nvalue = [11, 0]\nclass = 0"] ;
14 -> 16 ;
17 [label="gini = 0.0\nsamples = 6\nvalue = [0, 7]\nclass = 1"] ;
13 -> 17 ;
18 [label="gini = 0.0\nsamples = 3\nvalue = [5, 0]\nclass = 0"] ;
2 -> 18 ;
19 [label="X[9] <= -0.293\ngini = 0.163\nsamples = 40\nvalue = [61, 6]\nclass = 0"] ;
1 -> 19 ;
20 [label="X[9] <= -4.426\ngini = 0.375\nsamples = 4\nvalue = [1, 3]\nclass = 1"] ;
19 -> 20 ;
21 [label="gini = 0.0\nsamples = 1\nvalue = [1, 0]\nclass = 0"] ;
20 -> 21 ;
22 [label="gini = 0.0\nsamples = 3\nvalue = [0, 3]\nclass = 1"] ;
20 -> 22 ;
23 [label="X[8] <= -3.53\ngini = 0.091\nsamples = 36\nvalue = [60, 3]\nclass = 0"] ;
19 -> 23 ;
24 [label="X[2] <= 7.747\ngini = 0.444\nsamples = 3\nvalue = [1, 2]\nclass = 1"] ;
23 -> 24 ;
25 [label="gini = 0.0\nsamples = 2\nvalue = [0, 2]\nclass = 1"] ;
24 -> 25 ;
26 [label="gini = 0.0\nsamples = 1\nvalue = [1, 0]\nclass = 0"] ;
24 -> 26 ;
27 [label="X[5] <= -2.384\ngini = 0.033\nsamples = 33\nvalue = [59, 1]\nclass = 0"] ;
23 -> 27 ;
28 [label="X[1] <= 1.526\ngini = 0.32\nsamples = 2\nvalue = [4, 1]\nclass = 0"] ;
27 -> 28 ;
29 [label="gini = 0.0\nsamples = 1\nvalue = [4, 0]\nclass = 0"] ;
28 -> 29 ;
30 [label="gini = 0.0\nsamples = 1\nvalue = [0, 1]\nclass = 1"] ;
28 -> 30 ;
31 [label="gini = 0.0\nsamples = 31\nvalue = [55, 0]\nclass = 0"] ;
27 -> 31 ;
32 [label="X[8] <= -2.797\ngini = 0.001\nsamples = 125908\nvalue = [199078, 140]\nclass = 0"] ;
0 -> 32 [labeldistance=2.5, labelangle=-45, headlabel="False"] ;
33 [label="X[2] <= 2.246\ngini = 0.469\nsamples = 74\nvalue = [41, 68]\nclass = 1"] ;
32 -> 33 ;
34 [label="X[3] <= -2.48\ngini = 0.425\nsamples = 66\nvalue = [30, 68]\nclass = 1"] ;
33 -> 34 ;
35 [label="X[6] <= -3.914\ngini = 0.224\nsamples = 49\nvalue = [9, 61]\nclass = 1"] ;
34 -> 35 ;
36 [label="X[4] <= 3.213\ngini = 0.085\nsamples = 31\nvalue = [2, 43]\nclass = 1"] ;
35 -> 36 ;
37 [label="gini = 0.0\nsamples = 18\nvalue = [0, 29]\nclass = 1"] ;
36 -> 37 ;
38 [label="X[0] <= 1.964\ngini = 0.219\nsamples = 13\nvalue = [2, 14]\nclass = 1"] ;
36 -> 38 ;
39 [label="X[1] <= -0.012\ngini = 0.444\nsamples = 3\nvalue = [2, 1]\nclass = 0"] ;
38 -> 39 ;
40 [label="gini = 0.0\nsamples = 2\nvalue = [2, 0]\nclass = 0"] ;
39 -> 40 ;
41 [label="gini = 0.0\nsamples = 1\nvalue = [0, 1]\nclass = 1"] ;
39 -> 41 ;
42 [label="gini = 0.0\nsamples = 10\nvalue = [0, 13]\nclass = 1"] ;
38 -> 42 ;
43 [label="X[5] <= -3.47\ngini = 0.403\nsamples = 18\nvalue = [7, 18]\nclass = 1"] ;
35 -> 43 ;
44 [label="X[5] <= -4.991\ngini = 0.245\nsamples = 15\nvalue = [3, 18]\nclass = 1"] ;
43 -> 44 ;
45 [label="X[7] <= -3.465\ngini = 0.117\nsamples = 10\nvalue = [1, 15]\nclass = 1"] ;
44 -> 45 ;
46 [label="gini = 0.0\nsamples = 8\nvalue = [0, 14]\nclass = 1"] ;
45 -> 46 ;
47 [label="X[4] <= 2.39\ngini = 0.5\nsamples = 2\nvalue = [1, 1]\nclass = 0"] ;
45 -> 47 ;
48 [label="gini = 0.0\nsamples = 1\nvalue = [0, 1]\nclass = 1"] ;
47 -> 48 ;
49 [label="gini = 0.0\nsamples = 1\nvalue = [1, 0]\nclass = 0"] ;
47 -> 49 ;
50 [label="X[3] <= -7.309\ngini = 0.48\nsamples = 5\nvalue = [2, 3]\nclass = 1"] ;
44 -> 50 ;
51 [label="gini = 0.0\nsamples = 2\nvalue = [2, 0]\nclass = 0"] ;
50 -> 51 ;
52 [label="gini = 0.0\nsamples = 3\nvalue = [0, 3]\nclass = 1"] ;
50 -> 52 ;
53 [label="gini = 0.0\nsamples = 3\nvalue = [4, 0]\nclass = 0"] ;
43 -> 53 ;
54 [label="X[6] <= -3.218\ngini = 0.375\nsamples = 17\nvalue = [21, 7]\nclass = 0"] ;
34 -> 54 ;
55 [label="X[1] <= 1.66\ngini = 0.278\nsamples = 3\nvalue = [1, 5]\nclass = 1"] ;
54 -> 55 ;
56 [label="gini = 0.0\nsamples = 2\nvalue = [0, 5]\nclass = 1"] ;
55 -> 56 ;
57 [label="gini = 0.0\nsamples = 1\nvalue = [1, 0]\nclass = 0"] ;
55 -> 57 ;
58 [label="X[5] <= -5.648\ngini = 0.165\nsamples = 14\nvalue = [20, 2]\nclass = 0"] ;
54 -> 58 ;
59 [label="X[5] <= -6.698\ngini = 0.5\nsamples = 3\nvalue = [2, 2]\nclass = 0"] ;
58 -> 59 ;
60 [label="gini = 0.0\nsamples = 2\nvalue = [2, 0]\nclass = 0"] ;
59 -> 60 ;
61 [label="gini = 0.0\nsamples = 1\nvalue = [0, 2]\nclass = 1"] ;
59 -> 61 ;
62 [label="gini = 0.0\nsamples = 11\nvalue = [18, 0]\nclass = 0"] ;
58 -> 62 ;
63 [label="gini = 0.0\nsamples = 8\nvalue = [11, 0]\nclass = 0"] ;
33 -> 63 ;
64 [label="X[6] <= -4.657\ngini = 0.001\nsamples = 125834\nvalue = [199037, 72]\nclass = 0"] ;
32 -> 64 ;
65 [label="X[0] <= 1.873\ngini = 0.217\nsamples = 75\nvalue = [99, 14]\nclass = 0"] ;
64 -> 65 ;
66 [label="gini = 0.0\nsamples = 59\nvalue = [90, 0]\nclass = 0"] ;
65 -> 66 ;
67 [label="X[2] <= -1.137\ngini = 0.476\nsamples = 16\nvalue = [9, 14]\nclass = 1"] ;
65 -> 67 ;
68 [label="X[6] <= -4.801\ngini = 0.346\nsamples = 6\nvalue = [7, 2]\nclass = 0"] ;
67 -> 68 ;
69 [label="gini = 0.0\nsamples = 4\nvalue = [7, 0]\nclass = 0"] ;
68 -> 69 ;
70 [label="gini = 0.0\nsamples = 2\nvalue = [0, 2]\nclass = 1"] ;
68 -> 70 ;
71 [label="X[3] <= -1.229\ngini = 0.245\nsamples = 10\nvalue = [2, 12]\nclass = 1"] ;
67 -> 71 ;
72 [label="gini = 0.0\nsamples = 8\nvalue = [0, 12]\nclass = 1"] ;
71 -> 72 ;
73 [label="gini = 0.0\nsamples = 2\nvalue = [2, 0]\nclass = 0"] ;
71 -> 73 ;
74 [label="X[6] <= -3.511\ngini = 0.001\nsamples = 125759\nvalue = [198938, 58]\nclass = 0"] ;
64 -> 74 ;
75 [label="X[6] <= -3.513\ngini = 0.019\nsamples = 270\nvalue = [416, 4]\nclass = 0"] ;
74 -> 75 ;
76 [label="X[6] <= -4.422\ngini = 0.005\nsamples = 269\nvalue = [416, 1]\nclass = 0"] ;
75 -> 76 ;
77 [label="X[3] <= -1.55\ngini = 0.043\nsamples = 26\nvalue = [44, 1]\nclass = 0"] ;
76 -> 77 ;
78 [label="X[8] <= 3.835\ngini = 0.5\nsamples = 2\nvalue = [1, 1]\nclass = 0"] ;
77 -> 78 ;
79 [label="gini = 0.0\nsamples = 1\nvalue = [1, 0]\nclass = 0"] ;
78 -> 79 ;
80 [label="gini = 0.0\nsamples = 1\nvalue = [0, 1]\nclass = 1"] ;
78 -> 80 ;
81 [label="gini = 0.0\nsamples = 24\nvalue = [43, 0]\nclass = 0"] ;
77 -> 81 ;
82 [label="gini = 0.0\nsamples = 243\nvalue = [372, 0]\nclass = 0"] ;
76 -> 82 ;
83 [label="gini = 0.0\nsamples = 1\nvalue = [0, 3]\nclass = 1"] ;
75 -> 83 ;
84 [label="X[8] <= -2.037\ngini = 0.001\nsamples = 125489\nvalue = [198522, 54]\nclass = 0"] ;
74 -> 84 ;
85 [label="X[8] <= -2.056\ngini = 0.051\nsamples = 24\nvalue = [37, 1]\nclass = 0"] ;
84 -> 85 ;
86 [label="gini = 0.0\nsamples = 23\nvalue = [37, 0]\nclass = 0"] ;
85 -> 86 ;
87 [label="gini = 0.0\nsamples = 1\nvalue = [0, 1]\nclass = 1"] ;
85 -> 87 ;
88 [label="X[6] <= -1.886\ngini = 0.001\nsamples = 125465\nvalue = [198485, 53]\nclass = 0"] ;
84 -> 88 ;
89 [label="X[6] <= -1.886\ngini = 0.004\nsamples = 2881\nvalue = [4572, 10]\nclass = 0"] ;
88 -> 89 ;
90 [label="X[4] <= 0.496\ngini = 0.004\nsamples = 2880\nvalue = [4572, 9]\nclass = 0"] ;
89 -> 90 ;
91 [label="X[5] <= 0.178\ngini = 0.007\nsamples = 1461\nvalue = [2330, 8]\nclass = 0"] ;
90 -> 91 ;
92 [label="X[8] <= 2.497\ngini = 0.001\nsamples = 1155\nvalue = [1848, 1]\nclass = 0"] ;
91 -> 92 ;
93 [label="gini = 0.0\nsamples = 1049\nvalue = [1672, 0]\nclass = 0"] ;
92 -> 93 ;
94 [label="X[8] <= 2.499\ngini = 0.011\nsamples = 106\nvalue = [176, 1]\nclass = 0"] ;
92 -> 94 ;
95 [label="gini = 0.0\nsamples = 1\nvalue = [0, 1]\nclass = 1"] ;
94 -> 95 ;
96 [label="gini = 0.0\nsamples = 105\nvalue = [176, 0]\nclass = 0"] ;
94 -> 96 ;
97 [label="X[2] <= -1.086\ngini = 0.028\nsamples = 306\nvalue = [482, 7]\nclass = 0"] ;
91 -> 97 ;
98 [label="X[5] <= 0.245\ngini = 0.444\nsamples = 2\nvalue = [1, 2]\nclass = 1"] ;
97 -> 98 ;
99 [label="gini = 0.0\nsamples = 1\nvalue = [1, 0]\nclass = 0"] ;
98 -> 99 ;
100 [label="gini = 0.0\nsamples = 1\nvalue = [0, 2]\nclass = 1"] ;
98 -> 100 ;
101 [label="X[1] <= 0.222\ngini = 0.02\nsamples = 304\nvalue = [481, 5]\nclass = 0"] ;
97 -> 101 ;
102 [label="gini = 0.0\nsamples = 154\nvalue = [248, 0]\nclass = 0"] ;
101 -> 102 ;
103 [label="X[9] <= 0.356\ngini = 0.041\nsamples = 150\nvalue = [233, 5]\nclass = 0"] ;
101 -> 103 ;
104 [label="X[4] <= 0.484\ngini = 0.02\nsamples = 123\nvalue = [198, 2]\nclass = 0"] ;
103 -> 104 ;
105 [label="gini = 0.0\nsamples = 122\nvalue = [198, 0]\nclass = 0"] ;
104 -> 105 ;
106 [label="gini = 0.0\nsamples = 1\nvalue = [0, 2]\nclass = 1"] ;
104 -> 106 ;
107 [label="X[9] <= 0.372\ngini = 0.145\nsamples = 27\nvalue = [35, 3]\nclass = 0"] ;
103 -> 107 ;
108 [label="gini = 0.0\nsamples = 1\nvalue = [0, 1]\nclass = 1"] ;
107 -> 108 ;
109 [label="X[7] <= 0.453\ngini = 0.102\nsamples = 26\nvalue = [35, 2]\nclass = 0"] ;
107 -> 109 ;
110 [label="gini = 0.0\nsamples = 21\nvalue = [30, 0]\nclass = 0"] ;
109 -> 110 ;
111 [label="X[2] <= 0.953\ngini = 0.408\nsamples = 5\nvalue = [5, 2]\nclass = 0"] ;
109 -> 111 ;
112 [label="gini = 0.0\nsamples = 3\nvalue = [4, 0]\nclass = 0"] ;
111 -> 112 ;
113 [label="X[5] <= 0.55\ngini = 0.444\nsamples = 2\nvalue = [1, 2]\nclass = 1"] ;
111 -> 113 ;
114 [label="gini = 0.0\nsamples = 1\nvalue = [0, 2]\nclass = 1"] ;
113 -> 114 ;
115 [label="gini = 0.0\nsamples = 1\nvalue = [1, 0]\nclass = 0"] ;
113 -> 115 ;
116 [label="X[2] <= -1.502\ngini = 0.001\nsamples = 1419\nvalue = [2242, 1]\nclass = 0"] ;
90 -> 116 ;
117 [label="X[2] <= -1.507\ngini = 0.026\nsamples = 49\nvalue = [74, 1]\nclass = 0"] ;
116 -> 117 ;
118 [label="gini = 0.0\nsamples = 48\nvalue = [74, 0]\nclass = 0"] ;
117 -> 118 ;
119 [label="gini = 0.0\nsamples = 1\nvalue = [0, 1]\nclass = 1"] ;
117 -> 119 ;
120 [label="gini = 0.0\nsamples = 1370\nvalue = [2168, 0]\nclass = 0"] ;
116 -> 120 ;
121 [label="gini = 0.0\nsamples = 1\nvalue = [0, 1]\nclass = 1"] ;
89 -> 121 ;
122 [label="X[9] <= -1.376\ngini = 0.0\nsamples = 122584\nvalue = [193913, 43]\nclass = 0"] ;
88 -> 122 ;
123 [label="X[5] <= -0.238\ngini = 0.007\nsamples = 1355\nvalue = [2126, 8]\nclass = 0"] ;
122 -> 123 ;
124 [label="X[1] <= -8.778\ngini = 0.029\nsamples = 359\nvalue = [532, 8]\nclass = 0"] ;
123 -> 124 ;
125 [label="X[2] <= 3.597\ngini = 0.5\nsamples = 2\nvalue = [1, 1]\nclass = 0"] ;
124 -> 125 ;
126 [label="gini = 0.0\nsamples = 1\nvalue = [0, 1]\nclass = 1"] ;
125 -> 126 ;
127 [label="gini = 0.0\nsamples = 1\nvalue = [1, 0]\nclass = 0"] ;
125 -> 127 ;
128 [label="X[9] <= -1.377\ngini = 0.026\nsamples = 357\nvalue = [531, 7]\nclass = 0"] ;
124 -> 128 ;
129 [label="X[0] <= 5.142\ngini = 0.022\nsamples = 356\nvalue = [531, 6]\nclass = 0"] ;
128 -> 129 ;
130 [label="X[7] <= -1.641\ngini = 0.015\nsamples = 346\nvalue = [518, 4]\nclass = 0"] ;
129 -> 130 ;
131 [label="X[0] <= -0.191\ngini = 0.18\nsamples = 14\nvalue = [18, 2]\nclass = 0"] ;
130 -> 131 ;
132 [label="gini = 0.0\nsamples = 9\nvalue = [13, 0]\nclass = 0"] ;
131 -> 132 ;
133 [label="X[5] <= -0.308\ngini = 0.408\nsamples = 5\nvalue = [5, 2]\nclass = 0"] ;
131 -> 133 ;
134 [label="gini = 0.0\nsamples = 4\nvalue = [5, 0]\nclass = 0"] ;
133 -> 134 ;
135 [label="gini = 0.0\nsamples = 1\nvalue = [0, 2]\nclass = 1"] ;
133 -> 135 ;
136 [label="X[9] <= -4.122\ngini = 0.008\nsamples = 332\nvalue = [500, 2]\nclass = 0"] ;
130 -> 136 ;
137 [label="X[9] <= -4.191\ngini = 0.07\nsamples = 37\nvalue = [53, 2]\nclass = 0"] ;
136 -> 137 ;
138 [label="gini = 0.0\nsamples = 36\nvalue = [53, 0]\nclass = 0"] ;
137 -> 138 ;
139 [label="gini = 0.0\nsamples = 1\nvalue = [0, 2]\nclass = 1"] ;
137 -> 139 ;
140 [label="gini = 0.0\nsamples = 295\nvalue = [447, 0]\nclass = 0"] ;
136 -> 140 ;
141 [label="X[7] <= -0.42\ngini = 0.231\nsamples = 10\nvalue = [13, 2]\nclass = 0"] ;
129 -> 141 ;
142 [label="gini = 0.0\nsamples = 1\nvalue = [0, 2]\nclass = 1"] ;
141 -> 142 ;
143 [label="gini = 0.0\nsamples = 9\nvalue = [13, 0]\nclass = 0"] ;
141 -> 143 ;
144 [label="gini = 0.0\nsamples = 1\nvalue = [0, 1]\nclass = 1"] ;
128 -> 144 ;
145 [label="gini = 0.0\nsamples = 996\nvalue = [1594, 0]\nclass = 0"] ;
123 -> 145 ;
146 [label="X[0] <= 5.617\ngini = 0.0\nsamples = 121229\nvalue = [191787, 35]\nclass = 0"] ;
122 -> 146 ;
147 [label="X[8] <= 2.202\ngini = 0.0\nsamples = 121178\nvalue = [191703, 33]\nclass = 0"] ;
146 -> 147 ;
148 [label="X[5] <= -2.777\ngini = 0.0\nsamples = 120633\nvalue = [190846, 27]\nclass = 0"] ;
147 -> 148 ;
149 [label="X[9] <= -0.344\ngini = 0.002\nsamples = 1778\nvalue = [2884, 3]\nclass = 0"] ;
148 -> 149 ;
150 [label="X[8] <= 0.119\ngini = 0.016\nsamples = 233\nvalue = [374, 3]\nclass = 0"] ;
149 -> 150 ;
151 [label="X[8] <= 0.113\ngini = 0.051\nsamples = 64\nvalue = [111, 3]\nclass = 0"] ;
150 -> 151 ;
152 [label="X[4] <= -0.42\ngini = 0.035\nsamples = 63\nvalue = [111, 2]\nclass = 0"] ;
151 -> 152 ;
153 [label="X[3] <= 1.051\ngini = 0.117\nsamples = 21\nvalue = [30, 2]\nclass = 0"] ;
152 -> 153 ;
154 [label="gini = 0.0\nsamples = 17\nvalue = [27, 0]\nclass = 0"] ;
153 -> 154 ;
155 [label="X[5] <= -2.925\ngini = 0.48\nsamples = 4\nvalue = [3, 2]\nclass = 0"] ;
153 -> 155 ;
156 [label="gini = 0.0\nsamples = 3\nvalue = [3, 0]\nclass = 0"] ;
155 -> 156 ;
157 [label="gini = 0.0\nsamples = 1\nvalue = [0, 2]\nclass = 1"] ;
155 -> 157 ;
158 [label="gini = 0.0\nsamples = 42\nvalue = [81, 0]\nclass = 0"] ;
152 -> 158 ;
159 [label="gini = 0.0\nsamples = 1\nvalue = [0, 1]\nclass = 1"] ;
151 -> 159 ;
160 [label="gini = 0.0\nsamples = 169\nvalue = [263, 0]\nclass = 0"] ;
150 -> 160 ;
161 [label="gini = 0.0\nsamples = 1545\nvalue = [2510, 0]\nclass = 0"] ;
149 -> 161 ;
162 [label="X[0] <= 0.848\ngini = 0.0\nsamples = 118855\nvalue = [187962, 24]\nclass = 0"] ;
148 -> 162 ;
163 [label="X[1] <= 3.068\ngini = 0.0\nsamples = 92720\nvalue = [146734, 9]\nclass = 0"] ;
162 -> 163 ;
164 [label="X[1] <= 0.438\ngini = 0.0\nsamples = 92302\nvalue = [146124, 7]\nclass = 0"] ;
163 -> 164 ;
165 [label="X[6] <= -0.499\ngini = 0.0\nsamples = 64945\nvalue = [102642, 1]\nclass = 0"] ;
164 -> 165 ;
166 [label="X[5] <= 0.922\ngini = 0.0\nsamples = 12909\nvalue = [20412, 1]\nclass = 0"] ;
165 -> 166 ;
167 [label="gini = 0.0\nsamples = 11525\nvalue = [18262, 0]\nclass = 0"] ;
166 -> 167 ;
168 [label="X[5] <= 0.922\ngini = 0.001\nsamples = 1384\nvalue = [2150, 1]\nclass = 0"] ;
166 -> 168 ;
169 [label="gini = 0.0\nsamples = 1\nvalue = [0, 1]\nclass = 1"] ;
168 -> 169 ;
170 [label="gini = 0.0\nsamples = 1383\nvalue = [2150, 0]\nclass = 0"] ;
168 -> 170 ;
171 [label="gini = 0.0\nsamples = 52036\nvalue = [82230, 0]\nclass = 0"] ;
165 -> 171 ;
172 [label="X[4] <= 1.2\ngini = 0.0\nsamples = 27357\nvalue = [43482, 6]\nclass = 0"] ;
164 -> 172 ;
173 [label="X[3] <= 1.01\ngini = 0.0\nsamples = 24563\nvalue = [39003, 1]\nclass = 0"] ;
172 -> 173 ;
174 [label="gini = 0.0\nsamples = 23134\nvalue = [36713, 0]\nclass = 0"] ;
173 -> 174 ;
175 [label="X[3] <= 1.01\ngini = 0.001\nsamples = 1429\nvalue = [2290, 1]\nclass = 0"] ;
173 -> 175 ;
176 [label="gini = 0.0\nsamples = 1\nvalue = [0, 1]\nclass = 1"] ;
175 -> 176 ;
177 [label="gini = 0.0\nsamples = 1428\nvalue = [2290, 0]\nclass = 0"] ;
175 -> 177 ;
178 [label="X[1] <= 0.439\ngini = 0.002\nsamples = 2794\nvalue = [4479, 5]\nclass = 0"] ;
172 -> 178 ;
179 [label="gini = 0.0\nsamples = 1\nvalue = [0, 3]\nclass = 1"] ;
178 -> 179 ;
180 [label="X[3] <= -0.713\ngini = 0.001\nsamples = 2793\nvalue = [4479, 2]\nclass = 0"] ;
178 -> 180 ;
181 [label="X[7] <= 1.363\ngini = 0.005\nsamples = 531\nvalue = [852, 2]\nclass = 0"] ;
180 -> 181 ;
182 [label="X[9] <= 0.632\ngini = 0.002\nsamples = 528\nvalue = [850, 1]\nclass = 0"] ;
181 -> 182 ;
183 [label="gini = 0.0\nsamples = 481\nvalue = [783, 0]\nclass = 0"] ;
182 -> 183 ;
184 [label="X[9] <= 0.638\ngini = 0.029\nsamples = 47\nvalue = [67, 1]\nclass = 0"] ;
182 -> 184 ;
185 [label="gini = 0.0\nsamples = 1\nvalue = [0, 1]\nclass = 1"] ;
184 -> 185 ;
186 [label="gini = 0.0\nsamples = 46\nvalue = [67, 0]\nclass = 0"] ;
184 -> 186 ;
187 [label="X[7] <= 1.379\ngini = 0.444\nsamples = 3\nvalue = [2, 1]\nclass = 0"] ;
181 -> 187 ;
188 [label="gini = 0.0\nsamples = 1\nvalue = [0, 1]\nclass = 1"] ;
187 -> 188 ;
189 [label="gini = 0.0\nsamples = 2\nvalue = [2, 0]\nclass = 0"] ;
187 -> 189 ;
190 [label="gini = 0.0\nsamples = 2262\nvalue = [3627, 0]\nclass = 0"] ;
180 -> 190 ;
191 [label="X[7] <= -1.164\ngini = 0.007\nsamples = 418\nvalue = [610, 2]\nclass = 0"] ;
163 -> 191 ;
192 [label="X[7] <= -1.175\ngini = 0.038\nsamples = 63\nvalue = [100, 2]\nclass = 0"] ;
191 -> 192 ;
193 [label="gini = 0.0\nsamples = 62\nvalue = [100, 0]\nclass = 0"] ;
192 -> 193 ;
194 [label="gini = 0.0\nsamples = 1\nvalue = [0, 2]\nclass = 1"] ;
192 -> 194 ;
195 [label="gini = 0.0\nsamples = 355\nvalue = [510, 0]\nclass = 0"] ;
191 -> 195 ;
196 [label="X[5] <= -0.24\ngini = 0.001\nsamples = 26135\nvalue = [41228, 15]\nclass = 0"] ;
162 -> 196 ;
197 [label="X[0] <= 0.848\ngini = 0.002\nsamples = 6884\nvalue = [10836, 9]\nclass = 0"] ;
196 -> 197 ;
198 [label="gini = 0.0\nsamples = 1\nvalue = [0, 2]\nclass = 1"] ;
197 -> 198 ;
199 [label="X[9] <= 0.859\ngini = 0.001\nsamples = 6883\nvalue = [10836, 7]\nclass = 0"] ;
197 -> 199 ;
200 [label="X[2] <= -1.555\ngini = 0.001\nsamples = 6474\nvalue = [10212, 4]\nclass = 0"] ;
199 -> 200 ;
201 [label="X[4] <= -1.513\ngini = 0.004\nsamples = 587\nvalue = [981, 2]\nclass = 0"] ;
200 -> 201 ;
202 [label="X[5] <= -0.247\ngini = 0.017\nsamples = 138\nvalue = [228, 2]\nclass = 0"] ;
201 -> 202 ;
203 [label="X[1] <= 1.431\ngini = 0.009\nsamples = 137\nvalue = [228, 1]\nclass = 0"] ;
202 -> 203 ;
204 [label="gini = 0.0\nsamples = 108\nvalue = [183, 0]\nclass = 0"] ;
203 -> 204 ;
205 [label="X[6] <= 0.147\ngini = 0.043\nsamples = 29\nvalue = [45, 1]\nclass = 0"] ;
203 -> 205 ;
206 [label="X[1] <= 1.488\ngini = 0.153\nsamples = 9\nvalue = [11, 1]\nclass = 0"] ;
205 -> 206 ;
207 [label="gini = 0.0\nsamples = 1\nvalue = [0, 1]\nclass = 1"] ;
206 -> 207 ;
208 [label="gini = 0.0\nsamples = 8\nvalue = [11, 0]\nclass = 0"] ;
206 -> 208 ;
209 [label="gini = 0.0\nsamples = 20\nvalue = [34, 0]\nclass = 0"] ;
205 -> 209 ;
210 [label="gini = 0.0\nsamples = 1\nvalue = [0, 1]\nclass = 1"] ;
202 -> 210 ;
211 [label="gini = 0.0\nsamples = 449\nvalue = [753, 0]\nclass = 0"] ;
201 -> 211 ;
212 [label="X[6] <= -0.994\ngini = 0.0\nsamples = 5887\nvalue = [9231, 2]\nclass = 0"] ;
200 -> 212 ;
213 [label="X[6] <= -0.995\ngini = 0.008\nsamples = 314\nvalue = [502, 2]\nclass = 0"] ;
212 -> 213 ;
214 [label="X[3] <= -0.793\ngini = 0.004\nsamples = 313\nvalue = [502, 1]\nclass = 0"] ;
213 -> 214 ;
215 [label="X[1] <= 0.081\ngini = 0.035\nsamples = 37\nvalue = [55, 1]\nclass = 0"] ;
214 -> 215 ;
216 [label="X[5] <= -0.509\ngini = 0.245\nsamples = 6\nvalue = [6, 1]\nclass = 0"] ;
215 -> 216 ;
217 [label="X[7] <= 0.437\ngini = 0.5\nsamples = 2\nvalue = [1, 1]\nclass = 0"] ;
216 -> 217 ;
218 [label="gini = 0.0\nsamples = 1\nvalue = [0, 1]\nclass = 1"] ;
217 -> 218 ;
219 [label="gini = 0.0\nsamples = 1\nvalue = [1, 0]\nclass = 0"] ;
217 -> 219 ;
220 [label="gini = 0.0\nsamples = 4\nvalue = [5, 0]\nclass = 0"] ;
216 -> 220 ;
221 [label="gini = 0.0\nsamples = 31\nvalue = [49, 0]\nclass = 0"] ;
215 -> 221 ;
222 [label="gini = 0.0\nsamples = 276\nvalue = [447, 0]\nclass = 0"] ;
214 -> 222 ;
223 [label="gini = 0.0\nsamples = 1\nvalue = [0, 1]\nclass = 1"] ;
213 -> 223 ;
224 [label="gini = 0.0\nsamples = 5573\nvalue = [8729, 0]\nclass = 0"] ;
212 -> 224 ;
225 [label="X[9] <= 0.862\ngini = 0.01\nsamples = 409\nvalue = [624, 3]\nclass = 0"] ;
199 -> 225 ;
226 [label="gini = 0.0\nsamples = 1\nvalue = [0, 1]\nclass = 1"] ;
225 -> 226 ;
227 [label="X[5] <= -0.286\ngini = 0.006\nsamples = 408\nvalue = [624, 2]\nclass = 0"] ;
225 -> 227 ;
228 [label="gini = 0.0\nsamples = 376\nvalue = [572, 0]\nclass = 0"] ;
227 -> 228 ;
229 [label="X[4] <= 0.914\ngini = 0.071\nsamples = 32\nvalue = [52, 2]\nclass = 0"] ;
227 -> 229 ;
230 [label="gini = 0.0\nsamples = 30\nvalue = [51, 0]\nclass = 0"] ;
229 -> 230 ;
231 [label="X[3] <= -0.095\ngini = 0.444\nsamples = 2\nvalue = [1, 2]\nclass = 1"] ;
229 -> 231 ;
232 [label="gini = 0.0\nsamples = 1\nvalue = [0, 2]\nclass = 1"] ;
231 -> 232 ;
233 [label="gini = 0.0\nsamples = 1\nvalue = [1, 0]\nclass = 0"] ;
231 -> 233 ;
234 [label="X[9] <= -0.51\ngini = 0.0\nsamples = 19251\nvalue = [30392, 6]\nclass = 0"] ;
196 -> 234 ;
235 [label="X[0] <= 0.896\ngini = 0.006\nsamples = 618\nvalue = [982, 3]\nclass = 0"] ;
234 -> 235 ;
236 [label="X[0] <= 0.894\ngini = 0.059\nsamples = 22\nvalue = [32, 1]\nclass = 0"] ;
235 -> 236 ;
237 [label="gini = 0.0\nsamples = 21\nvalue = [32, 0]\nclass = 0"] ;
236 -> 237 ;
238 [label="gini = 0.0\nsamples = 1\nvalue = [0, 1]\nclass = 1"] ;
236 -> 238 ;
239 [label="X[2] <= 1.012\ngini = 0.004\nsamples = 596\nvalue = [950, 2]\nclass = 0"] ;
235 -> 239 ;
240 [label="gini = 0.0\nsamples = 546\nvalue = [865, 0]\nclass = 0"] ;
239 -> 240 ;
241 [label="X[2] <= 1.019\ngini = 0.045\nsamples = 50\nvalue = [85, 2]\nclass = 0"] ;
239 -> 241 ;
242 [label="gini = 0.0\nsamples = 1\nvalue = [0, 2]\nclass = 1"] ;
241 -> 242 ;
243 [label="gini = 0.0\nsamples = 49\nvalue = [85, 0]\nclass = 0"] ;
241 -> 243 ;
244 [label="X[0] <= 0.902\ngini = 0.0\nsamples = 18633\nvalue = [29410, 3]\nclass = 0"] ;
234 -> 244 ;
245 [label="X[2] <= -0.08\ngini = 0.003\nsamples = 949\nvalue = [1488, 2]\nclass = 0"] ;
244 -> 245 ;
246 [label="gini = 0.0\nsamples = 567\nvalue = [925, 0]\nclass = 0"] ;
245 -> 246 ;
247 [label="X[2] <= -0.077\ngini = 0.007\nsamples = 382\nvalue = [563, 2]\nclass = 0"] ;
245 -> 247 ;
248 [label="gini = 0.0\nsamples = 1\nvalue = [0, 2]\nclass = 1"] ;
247 -> 248 ;
249 [label="gini = 0.0\nsamples = 381\nvalue = [563, 0]\nclass = 0"] ;
247 -> 249 ;
250 [label="X[5] <= 1.238\ngini = 0.0\nsamples = 17684\nvalue = [27922, 1]\nclass = 0"] ;
244 -> 250 ;
251 [label="gini = 0.0\nsamples = 16219\nvalue = [25571, 0]\nclass = 0"] ;
250 -> 251 ;
252 [label="X[7] <= 0.085\ngini = 0.001\nsamples = 1465\nvalue = [2351, 1]\nclass = 0"] ;
250 -> 252 ;
253 [label="gini = 0.0\nsamples = 1102\nvalue = [1778, 0]\nclass = 0"] ;
252 -> 253 ;
254 [label="X[3] <= 0.64\ngini = 0.003\nsamples = 363\nvalue = [573, 1]\nclass = 0"] ;
252 -> 254 ;
255 [label="gini = 0.0\nsamples = 321\nvalue = [511, 0]\nclass = 0"] ;
254 -> 255 ;
256 [label="X[3] <= 0.647\ngini = 0.031\nsamples = 42\nvalue = [62, 1]\nclass = 0"] ;
254 -> 256 ;
257 [label="gini = 0.0\nsamples = 1\nvalue = [0, 1]\nclass = 1"] ;
256 -> 257 ;
258 [label="gini = 0.0\nsamples = 41\nvalue = [62, 0]\nclass = 0"] ;
256 -> 258 ;
259 [label="X[0] <= 2.629\ngini = 0.014\nsamples = 545\nvalue = [857, 6]\nclass = 0"] ;
147 -> 259 ;
260 [label="gini = 0.0\nsamples = 497\nvalue = [786, 0]\nclass = 0"] ;
259 -> 260 ;
261 [label="X[0] <= 2.653\ngini = 0.144\nsamples = 48\nvalue = [71, 6]\nclass = 0"] ;
259 -> 261 ;
262 [label="gini = 0.0\nsamples = 1\nvalue = [0, 2]\nclass = 1"] ;
261 -> 262 ;
263 [label="X[7] <= 1.414\ngini = 0.101\nsamples = 47\nvalue = [71, 4]\nclass = 0"] ;
261 -> 263 ;
264 [label="X[3] <= -0.562\ngini = 0.06\nsamples = 40\nvalue = [63, 2]\nclass = 0"] ;
263 -> 264 ;
265 [label="X[3] <= -0.653\ngini = 0.18\nsamples = 11\nvalue = [18, 2]\nclass = 0"] ;
264 -> 265 ;
266 [label="gini = 0.0\nsamples = 10\nvalue = [18, 0]\nclass = 0"] ;
265 -> 266 ;
267 [label="gini = 0.0\nsamples = 1\nvalue = [0, 2]\nclass = 1"] ;
265 -> 267 ;
268 [label="gini = 0.0\nsamples = 29\nvalue = [45, 0]\nclass = 0"] ;
264 -> 268 ;
269 [label="X[3] <= -0.34\ngini = 0.32\nsamples = 7\nvalue = [8, 2]\nclass = 0"] ;
263 -> 269 ;
270 [label="gini = 0.0\nsamples = 2\nvalue = [0, 2]\nclass = 1"] ;
269 -> 270 ;
271 [label="gini = 0.0\nsamples = 5\nvalue = [8, 0]\nclass = 0"] ;
269 -> 271 ;
272 [label="X[9] <= 2.65\ngini = 0.045\nsamples = 51\nvalue = [84, 2]\nclass = 0"] ;
146 -> 272 ;
273 [label="X[9] <= 2.373\ngini = 0.102\nsamples = 21\nvalue = [35, 2]\nclass = 0"] ;
272 -> 273 ;
274 [label="X[7] <= -0.467\ngini = 0.054\nsamples = 20\nvalue = [35, 1]\nclass = 0"] ;
273 -> 274 ;
275 [label="gini = 0.0\nsamples = 1\nvalue = [0, 1]\nclass = 1"] ;
274 -> 275 ;
276 [label="gini = 0.0\nsamples = 19\nvalue = [35, 0]\nclass = 0"] ;
274 -> 276 ;
277 [label="gini = 0.0\nsamples = 1\nvalue = [0, 1]\nclass = 1"] ;
273 -> 277 ;
278 [label="gini = 0.0\nsamples = 30\nvalue = [49, 0]\nclass = 0"] ;
272 -> 278 ;
}