digraph Tree {
node [shape=box] ;
0 [label="X[5] <= -4.562\ngini = 0.003\nsamples = 126305\nvalue = [199174, 326]\nclass = 0"] ;
1 [label="X[3] <= -1.251\ngini = 0.229\nsamples = 155\nvalue = [31, 204]\nclass = 1"] ;
0 -> 1 [labeldistance=2.5, labelangle=45, headlabel="True"] ;
2 [label="X[0] <= 6.091\ngini = 0.191\nsamples = 147\nvalue = [24, 201]\nclass = 1"] ;
1 -> 2 ;
3 [label="X[3] <= -8.973\ngini = 0.32\nsamples = 80\nvalue = [22, 88]\nclass = 1"] ;
2 -> 3 ;
4 [label="X[9] <= 1.533\ngini = 0.208\nsamples = 12\nvalue = [15, 2]\nclass = 0"] ;
3 -> 4 ;
5 [label="gini = 0.0\nsamples = 9\nvalue = [14, 0]\nclass = 0"] ;
4 -> 5 ;
6 [label="X[4] <= 6.141\ngini = 0.444\nsamples = 3\nvalue = [1, 2]\nclass = 1"] ;
4 -> 6 ;
7 [label="gini = 0.0\nsamples = 1\nvalue = [1, 0]\nclass = 0"] ;
6 -> 7 ;
8 [label="gini = 0.0\nsamples = 2\nvalue = [0, 2]\nclass = 1"] ;
6 -> 8 ;
9 [label="X[1] <= 0.883\ngini = 0.139\nsamples = 68\nvalue = [7, 86]\nclass = 1"] ;
3 -> 9 ;
10 [label="X[7] <= -5.637\ngini = 0.104\nsamples = 67\nvalue = [5, 86]\nclass = 1"] ;
9 -> 10 ;
11 [label="gini = 0.0\nsamples = 23\nvalue = [0, 30]\nclass = 1"] ;
10 -> 11 ;
12 [label="X[8] <= -7.807\ngini = 0.15\nsamples = 44\nvalue = [5, 56]\nclass = 1"] ;
10 -> 12 ;
13 [label="X[7] <= -5.513\ngini = 0.355\nsamples = 11\nvalue = [3, 10]\nclass = 1"] ;
12 -> 13 ;
14 [label="gini = 0.0\nsamples = 1\nvalue = [1, 0]\nclass = 0"] ;
13 -> 14 ;
15 [label="X[3] <= -6.256\ngini = 0.278\nsamples = 10\nvalue = [2, 10]\nclass = 1"] ;
13 -> 15 ;
16 [label="X[9] <= 0.68\ngini = 0.5\nsamples = 4\nvalue = [2, 2]\nclass = 0"] ;
15 -> 16 ;
17 [label="gini = 0.0\nsamples = 2\nvalue = [0, 2]\nclass = 1"] ;
16 -> 17 ;
18 [label="gini = 0.0\nsamples = 2\nvalue = [2, 0]\nclass = 0"] ;
16 -> 18 ;
19 [label="gini = 0.0\nsamples = 6\nvalue = [0, 8]\nclass = 1"] ;
15 -> 19 ;
20 [label="X[0] <= 1.075\ngini = 0.08\nsamples = 33\nvalue = [2, 46]\nclass = 1"] ;
12 -> 20 ;
21 [label="gini = 0.0\nsamples = 1\nvalue = [1, 0]\nclass = 0"] ;
20 -> 21 ;
22 [label="X[3] <= -3.625\ngini = 0.042\nsamples = 32\nvalue = [1, 46]\nclass = 1"] ;
20 -> 22 ;
23 [label="gini = 0.0\nsamples = 29\nvalue = [0, 42]\nclass = 1"] ;
22 -> 23 ;
24 [label="X[7] <= -4.123\ngini = 0.32\nsamples = 3\nvalue = [1, 4]\nclass = 1"] ;
22 -> 24 ;
25 [label="gini = 0.0\nsamples = 1\nvalue = [1, 0]\nclass = 0"] ;
24 -> 25 ;
26 [label="gini = 0.0\nsamples = 2\nvalue = [0, 4]\nclass = 1"] ;
24 -> 26 ;
27 [label="gini = 0.0\nsamples = 1\nvalue = [2, 0]\nclass = 0"] ;
9 -> 27 ;
28 [label="X[9] <= -28.322\ngini = 0.034\nsamples = 67\nvalue = [2, 113]\nclass = 1"] ;
2 -> 28 ;
29 [label="gini = 0.0\nsamples = 1\nvalue = [1, 0]\nclass = 0"] ;
28 -> 29 ;
30 [label="X[6] <= -3.914\ngini = 0.017\nsamples = 66\nvalue = [1, 113]\nclass = 1"] ;
28 -> 30 ;
31 [label="gini = 0.0\nsamples = 62\nvalue = [0, 108]\nclass = 1"] ;
30 -> 31 ;
32 [label="X[1] <= -27.766\ngini = 0.278\nsamples = 4\nvalue = [1, 5]\nclass = 1"] ;
30 -> 32 ;
33 [label="gini = 0.0\nsamples = 3\nvalue = [0, 5]\nclass = 1"] ;
32 -> 33 ;
34 [label="gini = 0.0\nsamples = 1\nvalue = [1, 0]\nclass = 0"] ;
32 -> 34 ;
35 [label="X[7] <= -1.73\ngini = 0.42\nsamples = 8\nvalue = [7, 3]\nclass = 0"] ;
1 -> 35 ;
36 [label="X[6] <= -13.574\ngini = 0.48\nsamples = 4\nvalue = [2, 3]\nclass = 1"] ;
35 -> 36 ;
37 [label="gini = 0.0\nsamples = 1\nvalue = [1, 0]\nclass = 0"] ;
36 -> 37 ;
38 [label="X[4] <= 3.195\ngini = 0.375\nsamples = 3\nvalue = [1, 3]\nclass = 1"] ;
36 -> 38 ;
39 [label="gini = 0.0\nsamples = 1\nvalue = [1, 0]\nclass = 0"] ;
38 -> 39 ;
40 [label="gini = 0.0\nsamples = 2\nvalue = [0, 3]\nclass = 1"] ;
38 -> 40 ;
41 [label="gini = 0.0\nsamples = 4\nvalue = [5, 0]\nclass = 0"] ;
35 -> 41 ;
42 [label="X[8] <= -2.797\ngini = 0.001\nsamples = 126150\nvalue = [199143, 122]\nclass = 0"] ;
0 -> 42 [labeldistance=2.5, labelangle=-45, headlabel="False"] ;
43 [label="X[5] <= -2.174\ngini = 0.488\nsamples = 47\nvalue = [30, 41]\nclass = 1"] ;
42 -> 43 ;
44 [label="X[6] <= -3.182\ngini = 0.365\nsamples = 35\nvalue = [12, 38]\nclass = 1"] ;
43 -> 44 ;
45 [label="X[9] <= -4.937\ngini = 0.1\nsamples = 27\nvalue = [2, 36]\nclass = 1"] ;
44 -> 45 ;
46 [label="gini = 0.0\nsamples = 2\nvalue = [2, 0]\nclass = 0"] ;
45 -> 46 ;
47 [label="gini = 0.0\nsamples = 25\nvalue = [0, 36]\nclass = 1"] ;
45 -> 47 ;
48 [label="X[0] <= 1.426\ngini = 0.278\nsamples = 8\nvalue = [10, 2]\nclass = 0"] ;
44 -> 48 ;
49 [label="gini = 0.0\nsamples = 4\nvalue = [7, 0]\nclass = 0"] ;
48 -> 49 ;
50 [label="X[6] <= -2.853\ngini = 0.48\nsamples = 4\nvalue = [3, 2]\nclass = 0"] ;
48 -> 50 ;
51 [label="X[1] <= -2.143\ngini = 0.444\nsamples = 3\nvalue = [1, 2]\nclass = 1"] ;
50 -> 51 ;
52 [label="gini = 0.0\nsamples = 2\nvalue = [0, 2]\nclass = 1"] ;
51 -> 52 ;
53 [label="gini = 0.0\nsamples = 1\nvalue = [1, 0]\nclass = 0"] ;
51 -> 53 ;
54 [label="gini = 0.0\nsamples = 1\nvalue = [2, 0]\nclass = 0"] ;
50 -> 54 ;
55 [label="X[1] <= -4.179\ngini = 0.245\nsamples = 12\nvalue = [18, 3]\nclass = 0"] ;
43 -> 55 ;
56 [label="gini = 0.0\nsamples = 2\nvalue = [0, 3]\nclass = 1"] ;
55 -> 56 ;
57 [label="gini = 0.0\nsamples = 10\nvalue = [18, 0]\nclass = 0"] ;
55 -> 57 ;
58 [label="X[1] <= -9.37\ngini = 0.001\nsamples = 126103\nvalue = [199113, 81]\nclass = 0"] ;
42 -> 58 ;
59 [label="X[1] <= -9.38\ngini = 0.053\nsamples = 65\nvalue = [107, 3]\nclass = 0"] ;
58 -> 59 ;
60 [label="gini = 0.0\nsamples = 64\nvalue = [107, 0]\nclass = 0"] ;
59 -> 60 ;
61 [label="gini = 0.0\nsamples = 1\nvalue = [0, 3]\nclass = 1"] ;
59 -> 61 ;
62 [label="X[3] <= -3.074\ngini = 0.001\nsamples = 126038\nvalue = [199006, 78]\nclass = 0"] ;
58 -> 62 ;
63 [label="X[8] <= -1.289\ngini = 0.106\nsamples = 134\nvalue = [202, 12]\nclass = 0"] ;
62 -> 63 ;
64 [label="X[5] <= -2.359\ngini = 0.298\nsamples = 7\nvalue = [2, 9]\nclass = 1"] ;
63 -> 64 ;
65 [label="gini = 0.0\nsamples = 5\nvalue = [0, 9]\nclass = 1"] ;
64 -> 65 ;
66 [label="gini = 0.0\nsamples = 2\nvalue = [2, 0]\nclass = 0"] ;
64 -> 66 ;
67 [label="X[4] <= 2.591\ngini = 0.029\nsamples = 127\nvalue = [200, 3]\nclass = 0"] ;
63 -> 67 ;
68 [label="gini = 0.0\nsamples = 124\nvalue = [200, 0]\nclass = 0"] ;
67 -> 68 ;
69 [label="gini = 0.0\nsamples = 3\nvalue = [0, 3]\nclass = 1"] ;
67 -> 69 ;
70 [label="X[2] <= -3.977\ngini = 0.001\nsamples = 125904\nvalue = [198804, 66]\nclass = 0"] ;
62 -> 70 ;
71 [label="X[4] <= 0.724\ngini = 0.5\nsamples = 2\nvalue = [1, 1]\nclass = 0"] ;
70 -> 71 ;
72 [label="gini = 0.0\nsamples = 1\nvalue = [1, 0]\nclass = 0"] ;
71 -> 72 ;
73 [label="gini = 0.0\nsamples = 1\nvalue = [0, 1]\nclass = 1"] ;
71 -> 73 ;
74 [label="X[8] <= 3.859\ngini = 0.001\nsamples = 125902\nvalue = [198803, 65]\nclass = 0"] ;
70 -> 74 ;
75 [label="X[6] <= -1.886\ngini = 0.001\nsamples = 125744\nvalue = [198574, 50]\nclass = 0"] ;
74 -> 75 ;
76 [label="X[3] <= -2.477\ngini = 0.006\nsamples = 3261\nvalue = [5163, 15]\nclass = 0"] ;
75 -> 76 ;
77 [label="X[5] <= -2.066\ngini = 0.117\nsamples = 20\nvalue = [30, 2]\nclass = 0"] ;
76 -> 77 ;
78 [label="gini = 0.0\nsamples = 1\nvalue = [0, 2]\nclass = 1"] ;
77 -> 78 ;
79 [label="gini = 0.0\nsamples = 19\nvalue = [30, 0]\nclass = 0"] ;
77 -> 79 ;
80 [label="X[3] <= -1.963\ngini = 0.005\nsamples = 3241\nvalue = [5133, 13]\nclass = 0"] ;
76 -> 80 ;
81 [label="X[3] <= -1.967\ngini = 0.036\nsamples = 112\nvalue = [160, 3]\nclass = 0"] ;
80 -> 81 ;
82 [label="X[1] <= 3.845\ngini = 0.012\nsamples = 111\nvalue = [160, 1]\nclass = 0"] ;
81 -> 82 ;
83 [label="gini = 0.0\nsamples = 106\nvalue = [155, 0]\nclass = 0"] ;
82 -> 83 ;
84 [label="X[9] <= -0.303\ngini = 0.278\nsamples = 5\nvalue = [5, 1]\nclass = 0"] ;
82 -> 84 ;
85 [label="gini = 0.0\nsamples = 4\nvalue = [5, 0]\nclass = 0"] ;
84 -> 85 ;
86 [label="gini = 0.0\nsamples = 1\nvalue = [0, 1]\nclass = 1"] ;
84 -> 86 ;
87 [label="gini = 0.0\nsamples = 1\nvalue = [0, 2]\nclass = 1"] ;
81 -> 87 ;
88 [label="X[0] <= 0.382\ngini = 0.004\nsamples = 3129\nvalue = [4973, 10]\nclass = 0"] ;
80 -> 88 ;
89 [label="gini = 0.0\nsamples = 1504\nvalue = [2370, 0]\nclass = 0"] ;
88 -> 89 ;
90 [label="X[0] <= 0.385\ngini = 0.008\nsamples = 1625\nvalue = [2603, 10]\nclass = 0"] ;
88 -> 90 ;
91 [label="gini = 0.0\nsamples = 1\nvalue = [0, 2]\nclass = 1"] ;
90 -> 91 ;
92 [label="X[6] <= -1.95\ngini = 0.006\nsamples = 1624\nvalue = [2603, 8]\nclass = 0"] ;
90 -> 92 ;
93 [label="X[4] <= -1.594\ngini = 0.004\nsamples = 1556\nvalue = [2503, 5]\nclass = 0"] ;
92 -> 93 ;
94 [label="X[9] <= -0.827\ngini = 0.142\nsamples = 9\nvalue = [12, 1]\nclass = 0"] ;
93 -> 94 ;
95 [label="gini = 0.0\nsamples = 1\nvalue = [0, 1]\nclass = 1"] ;
94 -> 95 ;
96 [label="gini = 0.0\nsamples = 8\nvalue = [12, 0]\nclass = 0"] ;
94 -> 96 ;
97 [label="X[0] <= 2.674\ngini = 0.003\nsamples = 1547\nvalue = [2491, 4]\nclass = 0"] ;
93 -> 97 ;
98 [label="X[7] <= -0.053\ngini = 0.001\nsamples = 1317\nvalue = [2128, 1]\nclass = 0"] ;
97 -> 98 ;
99 [label="X[3] <= -1.423\ngini = 0.01\nsamples = 124\nvalue = [199, 1]\nclass = 0"] ;
98 -> 99 ;
100 [label="X[9] <= 0.279\ngini = 0.219\nsamples = 4\nvalue = [7, 1]\nclass = 0"] ;
99 -> 100 ;
101 [label="gini = 0.0\nsamples = 3\nvalue = [7, 0]\nclass = 0"] ;
100 -> 101 ;
102 [label="gini = 0.0\nsamples = 1\nvalue = [0, 1]\nclass = 1"] ;
100 -> 102 ;
103 [label="gini = 0.0\nsamples = 120\nvalue = [192, 0]\nclass = 0"] ;
99 -> 103 ;
104 [label="gini = 0.0\nsamples = 1193\nvalue = [1929, 0]\nclass = 0"] ;
98 -> 104 ;
105 [label="X[3] <= 0.043\ngini = 0.016\nsamples = 230\nvalue = [363, 3]\nclass = 0"] ;
97 -> 105 ;
106 [label="X[0] <= 2.709\ngini = 0.065\nsamples = 57\nvalue = [86, 3]\nclass = 0"] ;
105 -> 106 ;
107 [label="gini = 0.0\nsamples = 1\nvalue = [0, 2]\nclass = 1"] ;
106 -> 107 ;
108 [label="X[1] <= -0.035\ngini = 0.023\nsamples = 56\nvalue = [86, 1]\nclass = 0"] ;
106 -> 108 ;
109 [label="X[3] <= 0.028\ngini = 0.087\nsamples = 13\nvalue = [21, 1]\nclass = 0"] ;
108 -> 109 ;
110 [label="gini = 0.0\nsamples = 12\nvalue = [21, 0]\nclass = 0"] ;
109 -> 110 ;
111 [label="gini = 0.0\nsamples = 1\nvalue = [0, 1]\nclass = 1"] ;
109 -> 111 ;
112 [label="gini = 0.0\nsamples = 43\nvalue = [65, 0]\nclass = 0"] ;
108 -> 112 ;
113 [label="gini = 0.0\nsamples = 173\nvalue = [277, 0]\nclass = 0"] ;
105 -> 113 ;
114 [label="X[3] <= -0.868\ngini = 0.057\nsamples = 68\nvalue = [100, 3]\nclass = 0"] ;
92 -> 114 ;
115 [label="X[0] <= 0.41\ngini = 0.161\nsamples = 20\nvalue = [31, 3]\nclass = 0"] ;
114 -> 115 ;
116 [label="X[1] <= 0.747\ngini = 0.5\nsamples = 2\nvalue = [3, 3]\nclass = 0"] ;
115 -> 116 ;
117 [label="gini = 0.0\nsamples = 1\nvalue = [0, 3]\nclass = 1"] ;
116 -> 117 ;
118 [label="gini = 0.0\nsamples = 1\nvalue = [3, 0]\nclass = 0"] ;
116 -> 118 ;
119 [label="gini = 0.0\nsamples = 18\nvalue = [28, 0]\nclass = 0"] ;
115 -> 119 ;
120 [label="gini = 0.0\nsamples = 48\nvalue = [69, 0]\nclass = 0"] ;
114 -> 120 ;
121 [label="X[5] <= -2.777\ngini = 0.0\nsamples = 122483\nvalue = [193411, 35]\nclass = 0"] ;
75 -> 121 ;
122 [label="X[5] <= -2.777\ngini = 0.003\nsamples = 1857\nvalue = [2891, 5]\nclass = 0"] ;
121 -> 122 ;
123 [label="X[9] <= -0.344\ngini = 0.003\nsamples = 1856\nvalue = [2891, 4]\nclass = 0"] ;
122 -> 123 ;
124 [label="X[9] <= -0.345\ngini = 0.015\nsamples = 270\nvalue = [407, 3]\nclass = 0"] ;
123 -> 124 ;
125 [label="X[9] <= -0.359\ngini = 0.01\nsamples = 269\nvalue = [407, 2]\nclass = 0"] ;
124 -> 125 ;
126 [label="gini = 0.0\nsamples = 248\nvalue = [378, 0]\nclass = 0"] ;
125 -> 126 ;
127 [label="X[0] <= 1.694\ngini = 0.121\nsamples = 21\nvalue = [29, 2]\nclass = 0"] ;
125 -> 127 ;
128 [label="gini = 0.0\nsamples = 18\nvalue = [27, 0]\nclass = 0"] ;
127 -> 128 ;
129 [label="X[1] <= -0.202\ngini = 0.5\nsamples = 3\nvalue = [2, 2]\nclass = 0"] ;
127 -> 129 ;
130 [label="gini = 0.0\nsamples = 2\nvalue = [2, 0]\nclass = 0"] ;
129 -> 130 ;
131 [label="gini = 0.0\nsamples = 1\nvalue = [0, 2]\nclass = 1"] ;
129 -> 131 ;
132 [label="gini = 0.0\nsamples = 1\nvalue = [0, 1]\nclass = 1"] ;
124 -> 132 ;
133 [label="X[6] <= -0.965\ngini = 0.001\nsamples = 1586\nvalue = [2484, 1]\nclass = 0"] ;
123 -> 133 ;
134 [label="X[0] <= 3.005\ngini = 0.038\nsamples = 33\nvalue = [50, 1]\nclass = 0"] ;
133 -> 134 ;
135 [label="gini = 0.0\nsamples = 19\nvalue = [30, 0]\nclass = 0"] ;
134 -> 135 ;
136 [label="X[3] <= -0.734\ngini = 0.091\nsamples = 14\nvalue = [20, 1]\nclass = 0"] ;
134 -> 136 ;
137 [label="X[8] <= 2.921\ngini = 0.5\nsamples = 2\nvalue = [1, 1]\nclass = 0"] ;
136 -> 137 ;
138 [label="gini = 0.0\nsamples = 1\nvalue = [0, 1]\nclass = 1"] ;
137 -> 138 ;
139 [label="gini = 0.0\nsamples = 1\nvalue = [1, 0]\nclass = 0"] ;
137 -> 139 ;
140 [label="gini = 0.0\nsamples = 12\nvalue = [19, 0]\nclass = 0"] ;
136 -> 140 ;
141 [label="gini = 0.0\nsamples = 1553\nvalue = [2434, 0]\nclass = 0"] ;
133 -> 141 ;
142 [label="gini = 0.0\nsamples = 1\nvalue = [0, 1]\nclass = 1"] ;
122 -> 142 ;
143 [label="X[6] <= -0.429\ngini = 0.0\nsamples = 120626\nvalue = [190520, 30]\nclass = 0"] ;
121 -> 143 ;
144 [label="X[7] <= -1.654\ngini = 0.001\nsamples = 27669\nvalue = [43737, 20]\nclass = 0"] ;
143 -> 144 ;
145 [label="X[9] <= -1.456\ngini = 0.006\nsamples = 861\nvalue = [1316, 4]\nclass = 0"] ;
144 -> 145 ;
146 [label="X[3] <= 0.577\ngini = 0.128\nsamples = 20\nvalue = [27, 2]\nclass = 0"] ;
145 -> 146 ;
147 [label="X[3] <= 0.394\ngini = 0.444\nsamples = 5\nvalue = [4, 2]\nclass = 0"] ;
146 -> 147 ;
148 [label="gini = 0.0\nsamples = 4\nvalue = [4, 0]\nclass = 0"] ;
147 -> 148 ;
149 [label="gini = 0.0\nsamples = 1\nvalue = [0, 2]\nclass = 1"] ;
147 -> 149 ;
150 [label="gini = 0.0\nsamples = 15\nvalue = [23, 0]\nclass = 0"] ;
146 -> 150 ;
151 [label="X[9] <= -0.576\ngini = 0.003\nsamples = 841\nvalue = [1289, 2]\nclass = 0"] ;
145 -> 151 ;
152 [label="X[6] <= -0.499\ngini = 0.021\nsamples = 123\nvalue = [189, 2]\nclass = 0"] ;
151 -> 152 ;
153 [label="gini = 0.0\nsamples = 113\nvalue = [178, 0]\nclass = 0"] ;
152 -> 153 ;
154 [label="X[6] <= -0.493\ngini = 0.26\nsamples = 10\nvalue = [11, 2]\nclass = 0"] ;
152 -> 154 ;
155 [label="gini = 0.0\nsamples = 1\nvalue = [0, 2]\nclass = 1"] ;
154 -> 155 ;
156 [label="gini = 0.0\nsamples = 9\nvalue = [11, 0]\nclass = 0"] ;
154 -> 156 ;
157 [label="gini = 0.0\nsamples = 718\nvalue = [1100, 0]\nclass = 0"] ;
151 -> 157 ;
158 [label="X[0] <= 5.142\ngini = 0.001\nsamples = 26808\nvalue = [42421, 16]\nclass = 0"] ;
144 -> 158 ;
159 [label="X[9] <= -4.118\ngini = 0.001\nsamples = 26785\nvalue = [42388, 15]\nclass = 0"] ;
158 -> 159 ;
160 [label="X[1] <= -1.871\ngini = 0.032\nsamples = 75\nvalue = [122, 2]\nclass = 0"] ;
159 -> 160 ;
161 [label="X[5] <= -0.095\ngini = 0.346\nsamples = 8\nvalue = [7, 2]\nclass = 0"] ;
160 -> 161 ;
162 [label="gini = 0.0\nsamples = 1\nvalue = [0, 2]\nclass = 1"] ;
161 -> 162 ;
163 [label="gini = 0.0\nsamples = 7\nvalue = [7, 0]\nclass = 0"] ;
161 -> 163 ;
164 [label="gini = 0.0\nsamples = 67\nvalue = [115, 0]\nclass = 0"] ;
160 -> 164 ;
165 [label="X[4] <= 1.033\ngini = 0.001\nsamples = 26710\nvalue = [42266, 13]\nclass = 0"] ;
159 -> 165 ;
166 [label="X[0] <= 0.79\ngini = 0.0\nsamples = 23620\nvalue = [37453, 6]\nclass = 0"] ;
165 -> 166 ;
167 [label="X[9] <= -0.764\ngini = 0.0\nsamples = 19202\nvalue = [30406, 2]\nclass = 0"] ;
166 -> 167 ;
168 [label="X[1] <= 0.502\ngini = 0.003\nsamples = 465\nvalue = [702, 1]\nclass = 0"] ;
167 -> 168 ;
169 [label="gini = 0.0\nsamples = 297\nvalue = [450, 0]\nclass = 0"] ;
168 -> 169 ;
170 [label="X[1] <= 0.509\ngini = 0.008\nsamples = 168\nvalue = [252, 1]\nclass = 0"] ;
168 -> 170 ;
171 [label="gini = 0.0\nsamples = 1\nvalue = [0, 1]\nclass = 1"] ;
170 -> 171 ;
172 [label="gini = 0.0\nsamples = 167\nvalue = [252, 0]\nclass = 0"] ;
170 -> 172 ;
173 [label="X[3] <= -1.481\ngini = 0.0\nsamples = 18737\nvalue = [29704, 1]\nclass = 0"] ;
167 -> 173 ;
174 [label="X[8] <= -0.199\ngini = 0.002\nsamples = 795\nvalue = [1239, 1]\nclass = 0"] ;
173 -> 174 ;
175 [label="X[3] <= -1.483\ngini = 0.012\nsamples = 111\nvalue = [171, 1]\nclass = 0"] ;
174 -> 175 ;
176 [label="gini = 0.0\nsamples = 110\nvalue = [171, 0]\nclass = 0"] ;
175 -> 176 ;
177 [label="gini = 0.0\nsamples = 1\nvalue = [0, 1]\nclass = 1"] ;
175 -> 177 ;
178 [label="gini = 0.0\nsamples = 684\nvalue = [1068, 0]\nclass = 0"] ;
174 -> 178 ;
179 [label="gini = 0.0\nsamples = 17942\nvalue = [28465, 0]\nclass = 0"] ;
173 -> 179 ;
180 [label="X[0] <= 0.79\ngini = 0.001\nsamples = 4418\nvalue = [7047, 4]\nclass = 0"] ;
166 -> 180 ;
181 [label="gini = 0.0\nsamples = 1\nvalue = [0, 1]\nclass = 1"] ;
180 -> 181 ;
182 [label="X[5] <= -0.567\ngini = 0.001\nsamples = 4417\nvalue = [7047, 3]\nclass = 0"] ;
180 -> 182 ;
183 [label="X[5] <= -0.568\ngini = 0.006\nsamples = 445\nvalue = [703, 2]\nclass = 0"] ;
182 -> 183 ;
184 [label="gini = 0.0\nsamples = 444\nvalue = [703, 0]\nclass = 0"] ;
183 -> 184 ;
185 [label="gini = 0.0\nsamples = 1\nvalue = [0, 2]\nclass = 1"] ;
183 -> 185 ;
186 [label="X[9] <= -0.51\ngini = 0.0\nsamples = 3972\nvalue = [6344, 1]\nclass = 0"] ;
182 -> 186 ;
187 [label="X[9] <= -0.512\ngini = 0.007\nsamples = 176\nvalue = [279, 1]\nclass = 0"] ;
186 -> 187 ;
188 [label="gini = 0.0\nsamples = 175\nvalue = [279, 0]\nclass = 0"] ;
187 -> 188 ;
189 [label="gini = 0.0\nsamples = 1\nvalue = [0, 1]\nclass = 1"] ;
187 -> 189 ;
190 [label="gini = 0.0\nsamples = 3796\nvalue = [6065, 0]\nclass = 0"] ;
186 -> 190 ;
191 [label="X[4] <= 1.033\ngini = 0.003\nsamples = 3090\nvalue = [4813, 7]\nclass = 0"] ;
165 -> 191 ;
192 [label="gini = 0.0\nsamples = 1\nvalue = [0, 2]\nclass = 1"] ;
191 -> 192 ;
193 [label="X[2] <= -0.133\ngini = 0.002\nsamples = 3089\nvalue = [4813, 5]\nclass = 0"] ;
191 -> 193 ;
194 [label="X[2] <= -0.134\ngini = 0.004\nsamples = 1487\nvalue = [2321, 5]\nclass = 0"] ;
193 -> 194 ;
195 [label="X[7] <= 0.058\ngini = 0.003\nsamples = 1486\nvalue = [2321, 3]\nclass = 0"] ;
194 -> 195 ;
196 [label="X[2] <= -0.187\ngini = 0.01\nsamples = 378\nvalue = [595, 3]\nclass = 0"] ;
195 -> 196 ;
197 [label="gini = 0.0\nsamples = 355\nvalue = [567, 0]\nclass = 0"] ;
196 -> 197 ;
198 [label="X[2] <= -0.186\ngini = 0.175\nsamples = 23\nvalue = [28, 3]\nclass = 0"] ;
196 -> 198 ;
199 [label="gini = 0.0\nsamples = 1\nvalue = [0, 3]\nclass = 1"] ;
198 -> 199 ;
200 [label="gini = 0.0\nsamples = 22\nvalue = [28, 0]\nclass = 0"] ;
198 -> 200 ;
201 [label="gini = 0.0\nsamples = 1108\nvalue = [1726, 0]\nclass = 0"] ;
195 -> 201 ;
202 [label="gini = 0.0\nsamples = 1\nvalue = [0, 2]\nclass = 1"] ;
194 -> 202 ;
203 [label="gini = 0.0\nsamples = 1602\nvalue = [2492, 0]\nclass = 0"] ;
193 -> 203 ;
204 [label="X[0] <= 5.169\ngini = 0.057\nsamples = 23\nvalue = [33, 1]\nclass = 0"] ;
158 -> 204 ;
205 [label="gini = 0.0\nsamples = 1\nvalue = [0, 1]\nclass = 1"] ;
204 -> 205 ;
206 [label="gini = 0.0\nsamples = 22\nvalue = [33, 0]\nclass = 0"] ;
204 -> 206 ;
207 [label="X[1] <= -1.199\ngini = 0.0\nsamples = 92957\nvalue = [146783, 10]\nclass = 0"] ;
143 -> 207 ;
208 [label="X[3] <= 0.324\ngini = 0.001\nsamples = 5746\nvalue = [8992, 4]\nclass = 0"] ;
207 -> 208 ;
209 [label="X[3] <= 0.324\ngini = 0.002\nsamples = 2854\nvalue = [4414, 4]\nclass = 0"] ;
208 -> 209 ;
210 [label="X[4] <= 1.293\ngini = 0.001\nsamples = 2853\nvalue = [4414, 2]\nclass = 0"] ;
209 -> 210 ;
211 [label="gini = 0.0\nsamples = 2685\nvalue = [4151, 0]\nclass = 0"] ;
210 -> 211 ;
212 [label="X[2] <= -1.23\ngini = 0.015\nsamples = 168\nvalue = [263, 2]\nclass = 0"] ;
210 -> 212 ;
213 [label="X[4] <= 1.316\ngini = 0.219\nsamples = 8\nvalue = [14, 2]\nclass = 0"] ;
212 -> 213 ;
214 [label="gini = 0.0\nsamples = 1\nvalue = [0, 2]\nclass = 1"] ;
213 -> 214 ;
215 [label="gini = 0.0\nsamples = 7\nvalue = [14, 0]\nclass = 0"] ;
213 -> 215 ;
216 [label="gini = 0.0\nsamples = 160\nvalue = [249, 0]\nclass = 0"] ;
212 -> 216 ;
217 [label="gini = 0.0\nsamples = 1\nvalue = [0, 2]\nclass = 1"] ;
209 -> 217 ;
218 [label="gini = 0.0\nsamples = 2892\nvalue = [4578, 0]\nclass = 0"] ;
208 -> 218 ;
219 [label="X[8] <= -0.868\ngini = 0.0\nsamples = 87211\nvalue = [137791, 6]\nclass = 0"] ;
207 -> 219 ;
220 [label="X[4] <= -0.876\ngini = 0.0\nsamples = 7748\nvalue = [12333, 3]\nclass = 0"] ;
219 -> 220 ;
221 [label="X[9] <= -0.03\ngini = 0.003\nsamples = 1216\nvalue = [1943, 3]\nclass = 0"] ;
220 -> 221 ;
222 [label="gini = 0.0\nsamples = 754\nvalue = [1207, 0]\nclass = 0"] ;
221 -> 222 ;
223 [label="X[8] <= -0.868\ngini = 0.008\nsamples = 462\nvalue = [736, 3]\nclass = 0"] ;
221 -> 223 ;
224 [label="gini = 0.0\nsamples = 461\nvalue = [736, 0]\nclass = 0"] ;
223 -> 224 ;
225 [label="gini = 0.0\nsamples = 1\nvalue = [0, 3]\nclass = 1"] ;
223 -> 225 ;
226 [label="gini = 0.0\nsamples = 6532\nvalue = [10390, 0]\nclass = 0"] ;
220 -> 226 ;
227 [label="X[0] <= 2.521\ngini = 0.0\nsamples = 79463\nvalue = [125458, 3]\nclass = 0"] ;
219 -> 227 ;
228 [label="gini = 0.0\nsamples = 75928\nvalue = [119856, 0]\nclass = 0"] ;
227 -> 228 ;
229 [label="X[7] <= 0.085\ngini = 0.001\nsamples = 3535\nvalue = [5602, 3]\nclass = 0"] ;
227 -> 229 ;
230 [label="X[2] <= 1.008\ngini = 0.003\nsamples = 1336\nvalue = [2129, 3]\nclass = 0"] ;
229 -> 230 ;
231 [label="X[8] <= -0.216\ngini = 0.002\nsamples = 1281\nvalue = [2043, 2]\nclass = 0"] ;
230 -> 231 ;
232 [label="X[1] <= -0.116\ngini = 0.013\nsamples = 88\nvalue = [147, 1]\nclass = 0"] ;
231 -> 232 ;
233 [label="X[9] <= -0.289\ngini = 0.165\nsamples = 6\nvalue = [10, 1]\nclass = 0"] ;
232 -> 233 ;
234 [label="gini = 0.0\nsamples = 5\nvalue = [10, 0]\nclass = 0"] ;
233 -> 234 ;
235 [label="gini = 0.0\nsamples = 1\nvalue = [0, 1]\nclass = 1"] ;
233 -> 235 ;
236 [label="gini = 0.0\nsamples = 82\nvalue = [137, 0]\nclass = 0"] ;
232 -> 236 ;
237 [label="X[5] <= -0.709\ngini = 0.001\nsamples = 1193\nvalue = [1896, 1]\nclass = 0"] ;
231 -> 237 ;
238 [label="X[0] <= 2.866\ngini = 0.004\nsamples = 292\nvalue = [461, 1]\nclass = 0"] ;
237 -> 238 ;
239 [label="X[4] <= -1.053\ngini = 0.028\nsamples = 48\nvalue = [69, 1]\nclass = 0"] ;
238 -> 239 ;
240 [label="X[5] <= -0.715\ngini = 0.18\nsamples = 5\nvalue = [9, 1]\nclass = 0"] ;
239 -> 240 ;
241 [label="gini = 0.0\nsamples = 4\nvalue = [9, 0]\nclass = 0"] ;
240 -> 241 ;
242 [label="gini = 0.0\nsamples = 1\nvalue = [0, 1]\nclass = 1"] ;
240 -> 242 ;
243 [label="gini = 0.0\nsamples = 43\nvalue = [60, 0]\nclass = 0"] ;
239 -> 243 ;
244 [label="gini = 0.0\nsamples = 244\nvalue = [392, 0]\nclass = 0"] ;
238 -> 244 ;
245 [label="gini = 0.0\nsamples = 901\nvalue = [1435, 0]\nclass = 0"] ;
237 -> 245 ;
246 [label="X[9] <= -0.352\ngini = 0.023\nsamples = 55\nvalue = [86, 1]\nclass = 0"] ;
230 -> 246 ;
247 [label="X[9] <= -0.372\ngini = 0.219\nsamples = 5\nvalue = [7, 1]\nclass = 0"] ;
246 -> 247 ;
248 [label="gini = 0.0\nsamples = 4\nvalue = [7, 0]\nclass = 0"] ;
247 -> 248 ;
249 [label="gini = 0.0\nsamples = 1\nvalue = [0, 1]\nclass = 1"] ;
247 -> 249 ;
250 [label="gini = 0.0\nsamples = 50\nvalue = [79, 0]\nclass = 0"] ;
246 -> 250 ;
251 [label="gini = 0.0\nsamples = 2199\nvalue = [3473, 0]\nclass = 0"] ;
229 -> 251 ;
252 [label="X[3] <= -1.944\ngini = 0.115\nsamples = 158\nvalue = [229, 15]\nclass = 0"] ;
74 -> 252 ;
253 [label="X[0] <= 4.794\ngini = 0.48\nsamples = 18\nvalue = [18, 12]\nclass = 0"] ;
252 -> 253 ;
254 [label="X[1] <= 1.751\ngini = 0.499\nsamples = 14\nvalue = [11, 12]\nclass = 1"] ;
253 -> 254 ;
255 [label="X[6] <= -3.386\ngini = 0.415\nsamples = 10\nvalue = [5, 12]\nclass = 1"] ;
254 -> 255 ;
256 [label="X[1] <= 0.204\ngini = 0.142\nsamples = 8\nvalue = [1, 12]\nclass = 1"] ;
255 -> 256 ;
257 [label="gini = 0.0\nsamples = 1\nvalue = [1, 0]\nclass = 0"] ;
256 -> 257 ;
258 [label="gini = 0.0\nsamples = 7\nvalue = [0, 12]\nclass = 1"] ;
256 -> 258 ;
259 [label="gini = 0.0\nsamples = 2\nvalue = [4, 0]\nclass = 0"] ;
255 -> 259 ;
260 [label="gini = 0.0\nsamples = 4\nvalue = [6, 0]\nclass = 0"] ;
254 -> 260 ;
261 [label="gini = 0.0\nsamples = 4\nvalue = [7, 0]\nclass = 0"] ;
253 -> 261 ;
262 [label="X[1] <= 0.216\ngini = 0.028\nsamples = 140\nvalue = [211, 3]\nclass = 0"] ;
252 -> 262 ;
263 [label="gini = 0.0\nsamples = 101\nvalue = [155, 0]\nclass = 0"] ;
262 -> 263 ;
264 [label="X[0] <= 5.377\ngini = 0.097\nsamples = 39\nvalue = [56, 3]\nclass = 0"] ;
262 -> 264 ;
265 [label="X[8] <= 5.547\ngini = 0.036\nsamples = 35\nvalue = [53, 1]\nclass = 0"] ;
264 -> 265 ;
266 [label="gini = 0.0\nsamples = 30\nvalue = [48, 0]\nclass = 0"] ;
265 -> 266 ;
267 [label="X[2] <= -2.035\ngini = 0.278\nsamples = 5\nvalue = [5, 1]\nclass = 0"] ;
265 -> 267 ;
268 [label="gini = 0.0\nsamples = 1\nvalue = [0, 1]\nclass = 1"] ;
267 -> 268 ;
269 [label="gini = 0.0\nsamples = 4\nvalue = [5, 0]\nclass = 0"] ;
267 -> 269 ;
270 [label="X[6] <= -5.886\ngini = 0.48\nsamples = 4\nvalue = [3, 2]\nclass = 0"] ;
264 -> 270 ;
271 [label="gini = 0.0\nsamples = 3\nvalue = [3, 0]\nclass = 0"] ;
270 -> 271 ;
272 [label="gini = 0.0\nsamples = 1\nvalue = [0, 2]\nclass = 1"] ;
270 -> 272 ;
}