digraph Tree {
node [shape=box] ;
0 [label="X[8] <= -2.754\ngini = 0.003\nsamples = 126050\nvalue = [199166, 334]\nclass = 0"] ;
1 [label="X[3] <= -2.107\ngini = 0.353\nsamples = 192\nvalue = [70, 236]\nclass = 1"] ;
0 -> 1 [labeldistance=2.5, labelangle=45, headlabel="True"] ;
2 [label="X[4] <= 1.028\ngini = 0.29\nsamples = 171\nvalue = [49, 229]\nclass = 1"] ;
1 -> 2 ;
3 [label="X[6] <= -3.308\ngini = 0.278\nsamples = 6\nvalue = [10, 2]\nclass = 0"] ;
2 -> 3 ;
4 [label="gini = 0.0\nsamples = 1\nvalue = [0, 2]\nclass = 1"] ;
3 -> 4 ;
5 [label="gini = 0.0\nsamples = 5\nvalue = [10, 0]\nclass = 0"] ;
3 -> 5 ;
6 [label="X[9] <= 0.572\ngini = 0.25\nsamples = 165\nvalue = [39, 227]\nclass = 1"] ;
2 -> 6 ;
7 [label="X[2] <= 1.912\ngini = 0.099\nsamples = 84\nvalue = [7, 127]\nclass = 1"] ;
6 -> 7 ;
8 [label="X[1] <= -1.621\ngini = 0.073\nsamples = 83\nvalue = [5, 127]\nclass = 1"] ;
7 -> 8 ;
9 [label="X[3] <= -2.485\ngini = 0.017\nsamples = 74\nvalue = [1, 119]\nclass = 1"] ;
8 -> 9 ;
10 [label="gini = 0.0\nsamples = 72\nvalue = [0, 117]\nclass = 1"] ;
9 -> 10 ;
11 [label="X[0] <= 4.342\ngini = 0.444\nsamples = 2\nvalue = [1, 2]\nclass = 1"] ;
9 -> 11 ;
12 [label="gini = 0.0\nsamples = 1\nvalue = [1, 0]\nclass = 0"] ;
11 -> 12 ;
13 [label="gini = 0.0\nsamples = 1\nvalue = [0, 2]\nclass = 1"] ;
11 -> 13 ;
14 [label="X[4] <= 1.833\ngini = 0.444\nsamples = 9\nvalue = [4, 8]\nclass = 1"] ;
8 -> 14 ;
15 [label="gini = 0.0\nsamples = 2\nvalue = [2, 0]\nclass = 0"] ;
14 -> 15 ;
16 [label="X[3] <= -9.285\ngini = 0.32\nsamples = 7\nvalue = [2, 8]\nclass = 1"] ;
14 -> 16 ;
17 [label="gini = 0.0\nsamples = 1\nvalue = [1, 0]\nclass = 0"] ;
16 -> 17 ;
18 [label="X[5] <= -6.023\ngini = 0.198\nsamples = 6\nvalue = [1, 8]\nclass = 1"] ;
16 -> 18 ;
19 [label="gini = 0.0\nsamples = 1\nvalue = [1, 0]\nclass = 0"] ;
18 -> 19 ;
20 [label="gini = 0.0\nsamples = 5\nvalue = [0, 8]\nclass = 1"] ;
18 -> 20 ;
21 [label="gini = 0.0\nsamples = 1\nvalue = [2, 0]\nclass = 0"] ;
7 -> 21 ;
22 [label="X[2] <= -3.785\ngini = 0.367\nsamples = 81\nvalue = [32, 100]\nclass = 1"] ;
6 -> 22 ;
23 [label="X[7] <= -5.172\ngini = 0.07\nsamples = 35\nvalue = [2, 53]\nclass = 1"] ;
22 -> 23 ;
24 [label="X[5] <= -8.598\ngini = 0.038\nsamples = 33\nvalue = [1, 51]\nclass = 1"] ;
23 -> 24 ;
25 [label="gini = 0.0\nsamples = 24\nvalue = [0, 40]\nclass = 1"] ;
24 -> 25 ;
26 [label="X[5] <= -8.516\ngini = 0.153\nsamples = 9\nvalue = [1, 11]\nclass = 1"] ;
24 -> 26 ;
27 [label="gini = 0.0\nsamples = 1\nvalue = [1, 0]\nclass = 0"] ;
26 -> 27 ;
28 [label="gini = 0.0\nsamples = 8\nvalue = [0, 11]\nclass = 1"] ;
26 -> 28 ;
29 [label="X[8] <= -6.452\ngini = 0.444\nsamples = 2\nvalue = [1, 2]\nclass = 1"] ;
23 -> 29 ;
30 [label="gini = 0.0\nsamples = 1\nvalue = [1, 0]\nclass = 0"] ;
29 -> 30 ;
31 [label="gini = 0.0\nsamples = 1\nvalue = [0, 2]\nclass = 1"] ;
29 -> 31 ;
32 [label="X[6] <= -10.223\ngini = 0.476\nsamples = 46\nvalue = [30, 47]\nclass = 1"] ;
22 -> 32 ;
33 [label="X[0] <= 6.316\ngini = 0.332\nsamples = 11\nvalue = [15, 4]\nclass = 0"] ;
32 -> 33 ;
34 [label="gini = 0.0\nsamples = 8\nvalue = [15, 0]\nclass = 0"] ;
33 -> 34 ;
35 [label="gini = 0.0\nsamples = 3\nvalue = [0, 4]\nclass = 1"] ;
33 -> 35 ;
36 [label="X[1] <= -21.332\ngini = 0.383\nsamples = 35\nvalue = [15, 43]\nclass = 1"] ;
32 -> 36 ;
37 [label="gini = 0.0\nsamples = 2\nvalue = [2, 0]\nclass = 0"] ;
36 -> 37 ;
38 [label="X[9] <= 0.576\ngini = 0.357\nsamples = 33\nvalue = [13, 43]\nclass = 1"] ;
36 -> 38 ;
39 [label="gini = 0.0\nsamples = 1\nvalue = [4, 0]\nclass = 0"] ;
38 -> 39 ;
40 [label="X[0] <= 2.203\ngini = 0.286\nsamples = 32\nvalue = [9, 43]\nclass = 1"] ;
38 -> 40 ;
41 [label="X[7] <= -3.026\ngini = 0.408\nsamples = 5\nvalue = [5, 2]\nclass = 0"] ;
40 -> 41 ;
42 [label="gini = 0.0\nsamples = 2\nvalue = [4, 0]\nclass = 0"] ;
41 -> 42 ;
43 [label="X[1] <= -1.049\ngini = 0.444\nsamples = 3\nvalue = [1, 2]\nclass = 1"] ;
41 -> 43 ;
44 [label="gini = 0.0\nsamples = 1\nvalue = [1, 0]\nclass = 0"] ;
43 -> 44 ;
45 [label="gini = 0.0\nsamples = 2\nvalue = [0, 2]\nclass = 1"] ;
43 -> 45 ;
46 [label="X[6] <= -8.949\ngini = 0.162\nsamples = 27\nvalue = [4, 41]\nclass = 1"] ;
40 -> 46 ;
47 [label="X[9] <= 0.743\ngini = 0.49\nsamples = 5\nvalue = [3, 4]\nclass = 1"] ;
46 -> 47 ;
48 [label="gini = 0.0\nsamples = 2\nvalue = [0, 4]\nclass = 1"] ;
47 -> 48 ;
49 [label="gini = 0.0\nsamples = 3\nvalue = [3, 0]\nclass = 0"] ;
47 -> 49 ;
50 [label="X[7] <= -5.69\ngini = 0.051\nsamples = 22\nvalue = [1, 37]\nclass = 1"] ;
46 -> 50 ;
51 [label="X[5] <= -6.42\ngini = 0.32\nsamples = 4\nvalue = [1, 4]\nclass = 1"] ;
50 -> 51 ;
52 [label="gini = 0.0\nsamples = 3\nvalue = [0, 4]\nclass = 1"] ;
51 -> 52 ;
53 [label="gini = 0.0\nsamples = 1\nvalue = [1, 0]\nclass = 0"] ;
51 -> 53 ;
54 [label="gini = 0.0\nsamples = 18\nvalue = [0, 33]\nclass = 1"] ;
50 -> 54 ;
55 [label="X[0] <= 1.716\ngini = 0.375\nsamples = 21\nvalue = [21, 7]\nclass = 0"] ;
1 -> 55 ;
56 [label="gini = 0.0\nsamples = 10\nvalue = [11, 0]\nclass = 0"] ;
55 -> 56 ;
57 [label="X[8] <= -5.289\ngini = 0.484\nsamples = 11\nvalue = [10, 7]\nclass = 0"] ;
55 -> 57 ;
58 [label="gini = 0.0\nsamples = 4\nvalue = [7, 0]\nclass = 0"] ;
57 -> 58 ;
59 [label="X[6] <= -3.224\ngini = 0.42\nsamples = 7\nvalue = [3, 7]\nclass = 1"] ;
57 -> 59 ;
60 [label="gini = 0.0\nsamples = 4\nvalue = [0, 7]\nclass = 1"] ;
59 -> 60 ;
61 [label="gini = 0.0\nsamples = 3\nvalue = [3, 0]\nclass = 0"] ;
59 -> 61 ;
62 [label="X[5] <= -5.135\ngini = 0.001\nsamples = 125858\nvalue = [199096, 98]\nclass = 0"] ;
0 -> 62 [labeldistance=2.5, labelangle=-45, headlabel="False"] ;
63 [label="gini = 0.0\nsamples = 10\nvalue = [0, 14]\nclass = 1"] ;
62 -> 63 ;
64 [label="X[8] <= 6.438\ngini = 0.001\nsamples = 125848\nvalue = [199096, 84]\nclass = 0"] ;
62 -> 64 ;
65 [label="X[6] <= -8.22\ngini = 0.001\nsamples = 125837\nvalue = [199076, 77]\nclass = 0"] ;
64 -> 65 ;
66 [label="X[4] <= 3.973\ngini = 0.278\nsamples = 4\nvalue = [1, 5]\nclass = 1"] ;
65 -> 66 ;
67 [label="gini = 0.0\nsamples = 3\nvalue = [0, 5]\nclass = 1"] ;
66 -> 67 ;
68 [label="gini = 0.0\nsamples = 1\nvalue = [1, 0]\nclass = 0"] ;
66 -> 68 ;
69 [label="X[6] <= -4.661\ngini = 0.001\nsamples = 125833\nvalue = [199075, 72]\nclass = 0"] ;
65 -> 69 ;
70 [label="X[3] <= -3.052\ngini = 0.201\nsamples = 106\nvalue = [149, 19]\nclass = 0"] ;
69 -> 70 ;
71 [label="gini = 0.0\nsamples = 5\nvalue = [0, 9]\nclass = 1"] ;
70 -> 71 ;
72 [label="X[8] <= 3.519\ngini = 0.118\nsamples = 101\nvalue = [149, 10]\nclass = 0"] ;
70 -> 72 ;
73 [label="X[0] <= 5.227\ngini = 0.017\nsamples = 73\nvalue = [116, 1]\nclass = 0"] ;
72 -> 73 ;
74 [label="gini = 0.0\nsamples = 72\nvalue = [116, 0]\nclass = 0"] ;
73 -> 74 ;
75 [label="gini = 0.0\nsamples = 1\nvalue = [0, 1]\nclass = 1"] ;
73 -> 75 ;
76 [label="X[5] <= -1.025\ngini = 0.337\nsamples = 28\nvalue = [33, 9]\nclass = 0"] ;
72 -> 76 ;
77 [label="X[9] <= -0.218\ngini = 0.111\nsamples = 22\nvalue = [32, 2]\nclass = 0"] ;
76 -> 77 ;
78 [label="gini = 0.0\nsamples = 2\nvalue = [0, 2]\nclass = 1"] ;
77 -> 78 ;
79 [label="gini = 0.0\nsamples = 20\nvalue = [32, 0]\nclass = 0"] ;
77 -> 79 ;
80 [label="X[0] <= 5.08\ngini = 0.219\nsamples = 6\nvalue = [1, 7]\nclass = 1"] ;
76 -> 80 ;
81 [label="gini = 0.0\nsamples = 5\nvalue = [0, 7]\nclass = 1"] ;
80 -> 81 ;
82 [label="gini = 0.0\nsamples = 1\nvalue = [1, 0]\nclass = 0"] ;
80 -> 82 ;
83 [label="X[1] <= -9.37\ngini = 0.001\nsamples = 125727\nvalue = [198926, 53]\nclass = 0"] ;
69 -> 83 ;
84 [label="X[1] <= -9.38\ngini = 0.052\nsamples = 70\nvalue = [109, 3]\nclass = 0"] ;
83 -> 84 ;
85 [label="gini = 0.0\nsamples = 69\nvalue = [109, 0]\nclass = 0"] ;
84 -> 85 ;
86 [label="gini = 0.0\nsamples = 1\nvalue = [0, 3]\nclass = 1"] ;
84 -> 86 ;
87 [label="X[8] <= 1.707\ngini = 0.001\nsamples = 125657\nvalue = [198817, 50]\nclass = 0"] ;
83 -> 87 ;
88 [label="X[1] <= 3.071\ngini = 0.0\nsamples = 122688\nvalue = [194089, 30]\nclass = 0"] ;
87 -> 88 ;
89 [label="X[2] <= 0.509\ngini = 0.0\nsamples = 121765\nvalue = [192628, 26]\nclass = 0"] ;
88 -> 89 ;
90 [label="X[9] <= -1.464\ngini = 0.0\nsamples = 87676\nvalue = [138737, 12]\nclass = 0"] ;
89 -> 90 ;
91 [label="X[3] <= 3.903\ngini = 0.005\nsamples = 482\nvalue = [756, 2]\nclass = 0"] ;
90 -> 91 ;
92 [label="X[7] <= -1.638\ngini = 0.003\nsamples = 478\nvalue = [751, 1]\nclass = 0"] ;
91 -> 92 ;
93 [label="X[9] <= -1.477\ngini = 0.032\nsamples = 38\nvalue = [60, 1]\nclass = 0"] ;
92 -> 93 ;
94 [label="gini = 0.0\nsamples = 37\nvalue = [60, 0]\nclass = 0"] ;
93 -> 94 ;
95 [label="gini = 0.0\nsamples = 1\nvalue = [0, 1]\nclass = 1"] ;
93 -> 95 ;
96 [label="gini = 0.0\nsamples = 440\nvalue = [691, 0]\nclass = 0"] ;
92 -> 96 ;
97 [label="X[9] <= -2.368\ngini = 0.278\nsamples = 4\nvalue = [5, 1]\nclass = 0"] ;
91 -> 97 ;
98 [label="gini = 0.0\nsamples = 3\nvalue = [5, 0]\nclass = 0"] ;
97 -> 98 ;
99 [label="gini = 0.0\nsamples = 1\nvalue = [0, 1]\nclass = 1"] ;
97 -> 99 ;
100 [label="X[0] <= 0.756\ngini = 0.0\nsamples = 87194\nvalue = [137981, 10]\nclass = 0"] ;
90 -> 100 ;
101 [label="X[6] <= -0.658\ngini = 0.0\nsamples = 65969\nvalue = [104362, 1]\nclass = 0"] ;
100 -> 101 ;
102 [label="X[5] <= 0.282\ngini = 0.0\nsamples = 10160\nvalue = [16215, 1]\nclass = 0"] ;
101 -> 102 ;
103 [label="gini = 0.0\nsamples = 7102\nvalue = [11321, 0]\nclass = 0"] ;
102 -> 103 ;
104 [label="X[4] <= 1.2\ngini = 0.0\nsamples = 3058\nvalue = [4894, 1]\nclass = 0"] ;
102 -> 104 ;
105 [label="gini = 0.0\nsamples = 2567\nvalue = [4135, 0]\nclass = 0"] ;
104 -> 105 ;
106 [label="X[5] <= 0.283\ngini = 0.003\nsamples = 491\nvalue = [759, 1]\nclass = 0"] ;
104 -> 106 ;
107 [label="gini = 0.0\nsamples = 1\nvalue = [0, 1]\nclass = 1"] ;
106 -> 107 ;
108 [label="gini = 0.0\nsamples = 490\nvalue = [759, 0]\nclass = 0"] ;
106 -> 108 ;
109 [label="gini = 0.0\nsamples = 55809\nvalue = [88147, 0]\nclass = 0"] ;
101 -> 109 ;
110 [label="X[1] <= -0.717\ngini = 0.001\nsamples = 21225\nvalue = [33619, 9]\nclass = 0"] ;
100 -> 110 ;
111 [label="X[1] <= -0.718\ngini = 0.003\nsamples = 2022\nvalue = [3191, 4]\nclass = 0"] ;
110 -> 111 ;
112 [label="X[4] <= 1.292\ngini = 0.001\nsamples = 2021\nvalue = [3191, 1]\nclass = 0"] ;
111 -> 112 ;
113 [label="gini = 0.0\nsamples = 1923\nvalue = [3036, 0]\nclass = 0"] ;
112 -> 113 ;
114 [label="X[4] <= 1.296\ngini = 0.013\nsamples = 98\nvalue = [155, 1]\nclass = 0"] ;
112 -> 114 ;
115 [label="gini = 0.0\nsamples = 1\nvalue = [0, 1]\nclass = 1"] ;
114 -> 115 ;
116 [label="gini = 0.0\nsamples = 97\nvalue = [155, 0]\nclass = 0"] ;
114 -> 116 ;
117 [label="gini = 0.0\nsamples = 1\nvalue = [0, 3]\nclass = 1"] ;
111 -> 117 ;
118 [label="X[8] <= 1.143\ngini = 0.0\nsamples = 19203\nvalue = [30428, 5]\nclass = 0"] ;
110 -> 118 ;
119 [label="X[6] <= -0.995\ngini = 0.0\nsamples = 18346\nvalue = [29074, 3]\nclass = 0"] ;
118 -> 119 ;
120 [label="X[5] <= -0.817\ngini = 0.002\nsamples = 728\nvalue = [1159, 1]\nclass = 0"] ;
119 -> 120 ;
121 [label="X[3] <= -0.542\ngini = 0.035\nsamples = 40\nvalue = [55, 1]\nclass = 0"] ;
120 -> 121 ;
122 [label="X[5] <= -0.865\ngini = 0.245\nsamples = 7\nvalue = [6, 1]\nclass = 0"] ;
121 -> 122 ;
123 [label="gini = 0.0\nsamples = 6\nvalue = [6, 0]\nclass = 0"] ;
122 -> 123 ;
124 [label="gini = 0.0\nsamples = 1\nvalue = [0, 1]\nclass = 1"] ;
122 -> 124 ;
125 [label="gini = 0.0\nsamples = 33\nvalue = [49, 0]\nclass = 0"] ;
121 -> 125 ;
126 [label="gini = 0.0\nsamples = 688\nvalue = [1104, 0]\nclass = 0"] ;
120 -> 126 ;
127 [label="X[9] <= 1.229\ngini = 0.0\nsamples = 17618\nvalue = [27915, 2]\nclass = 0"] ;
119 -> 127 ;
128 [label="X[8] <= -1.275\ngini = 0.0\nsamples = 17193\nvalue = [27227, 1]\nclass = 0"] ;
127 -> 128 ;
129 [label="X[2] <= -1.723\ngini = 0.003\nsamples = 361\nvalue = [572, 1]\nclass = 0"] ;
128 -> 129 ;
130 [label="X[5] <= 0.436\ngini = 0.025\nsamples = 48\nvalue = [79, 1]\nclass = 0"] ;
129 -> 130 ;
131 [label="gini = 0.0\nsamples = 45\nvalue = [76, 0]\nclass = 0"] ;
130 -> 131 ;
132 [label="X[6] <= 0.113\ngini = 0.375\nsamples = 3\nvalue = [3, 1]\nclass = 0"] ;
130 -> 132 ;
133 [label="gini = 0.0\nsamples = 1\nvalue = [0, 1]\nclass = 1"] ;
132 -> 133 ;
134 [label="gini = 0.0\nsamples = 2\nvalue = [3, 0]\nclass = 0"] ;
132 -> 134 ;
135 [label="gini = 0.0\nsamples = 313\nvalue = [493, 0]\nclass = 0"] ;
129 -> 135 ;
136 [label="gini = 0.0\nsamples = 16832\nvalue = [26655, 0]\nclass = 0"] ;
128 -> 136 ;
137 [label="X[9] <= 1.231\ngini = 0.003\nsamples = 425\nvalue = [688, 1]\nclass = 0"] ;
127 -> 137 ;
138 [label="gini = 0.0\nsamples = 1\nvalue = [0, 1]\nclass = 1"] ;
137 -> 138 ;
139 [label="gini = 0.0\nsamples = 424\nvalue = [688, 0]\nclass = 0"] ;
137 -> 139 ;
140 [label="X[4] <= 2.276\ngini = 0.003\nsamples = 857\nvalue = [1354, 2]\nclass = 0"] ;
118 -> 140 ;
141 [label="X[5] <= -0.657\ngini = 0.001\nsamples = 846\nvalue = [1337, 1]\nclass = 0"] ;
140 -> 141 ;
142 [label="X[0] <= 0.793\ngini = 0.007\nsamples = 167\nvalue = [282, 1]\nclass = 0"] ;
141 -> 142 ;
143 [label="gini = 0.0\nsamples = 1\nvalue = [0, 1]\nclass = 1"] ;
142 -> 143 ;
144 [label="gini = 0.0\nsamples = 166\nvalue = [282, 0]\nclass = 0"] ;
142 -> 144 ;
145 [label="gini = 0.0\nsamples = 679\nvalue = [1055, 0]\nclass = 0"] ;
141 -> 145 ;
146 [label="X[7] <= 0.296\ngini = 0.105\nsamples = 11\nvalue = [17, 1]\nclass = 0"] ;
140 -> 146 ;
147 [label="gini = 0.0\nsamples = 8\nvalue = [11, 0]\nclass = 0"] ;
146 -> 147 ;
148 [label="X[8] <= 1.232\ngini = 0.245\nsamples = 3\nvalue = [6, 1]\nclass = 0"] ;
146 -> 148 ;
149 [label="gini = 0.0\nsamples = 1\nvalue = [0, 1]\nclass = 1"] ;
148 -> 149 ;
150 [label="gini = 0.0\nsamples = 2\nvalue = [6, 0]\nclass = 0"] ;
148 -> 150 ;
151 [label="X[0] <= 3.785\ngini = 0.001\nsamples = 34089\nvalue = [53891, 14]\nclass = 0"] ;
89 -> 151 ;
152 [label="X[9] <= -4.124\ngini = 0.0\nsamples = 33867\nvalue = [53553, 12]\nclass = 0"] ;
151 -> 152 ;
153 [label="X[9] <= -4.14\ngini = 0.021\nsamples = 117\nvalue = [188, 2]\nclass = 0"] ;
152 -> 153 ;
154 [label="gini = 0.0\nsamples = 116\nvalue = [188, 0]\nclass = 0"] ;
153 -> 154 ;
155 [label="gini = 0.0\nsamples = 1\nvalue = [0, 2]\nclass = 1"] ;
153 -> 155 ;
156 [label="X[9] <= -0.511\ngini = 0.0\nsamples = 33750\nvalue = [53365, 10]\nclass = 0"] ;
152 -> 156 ;
157 [label="X[0] <= 1.151\ngini = 0.004\nsamples = 1797\nvalue = [2800, 5]\nclass = 0"] ;
156 -> 157 ;
158 [label="X[2] <= 0.637\ngini = 0.001\nsamples = 1578\nvalue = [2459, 1]\nclass = 0"] ;
157 -> 158 ;
159 [label="X[2] <= 0.637\ngini = 0.006\nsamples = 219\nvalue = [349, 1]\nclass = 0"] ;
158 -> 159 ;
160 [label="gini = 0.0\nsamples = 218\nvalue = [349, 0]\nclass = 0"] ;
159 -> 160 ;
161 [label="gini = 0.0\nsamples = 1\nvalue = [0, 1]\nclass = 1"] ;
159 -> 161 ;
162 [label="gini = 0.0\nsamples = 1359\nvalue = [2110, 0]\nclass = 0"] ;
158 -> 162 ;
163 [label="X[7] <= -1.241\ngini = 0.023\nsamples = 219\nvalue = [341, 4]\nclass = 0"] ;
157 -> 163 ;
164 [label="X[0] <= 1.158\ngini = 0.107\nsamples = 33\nvalue = [50, 3]\nclass = 0"] ;
163 -> 164 ;
165 [label="gini = 0.0\nsamples = 1\nvalue = [0, 3]\nclass = 1"] ;
164 -> 165 ;
166 [label="gini = 0.0\nsamples = 32\nvalue = [50, 0]\nclass = 0"] ;
164 -> 166 ;
167 [label="X[1] <= 0.775\ngini = 0.007\nsamples = 186\nvalue = [291, 1]\nclass = 0"] ;
163 -> 167 ;
168 [label="gini = 0.0\nsamples = 160\nvalue = [249, 0]\nclass = 0"] ;
167 -> 168 ;
169 [label="X[1] <= 0.787\ngini = 0.045\nsamples = 26\nvalue = [42, 1]\nclass = 0"] ;
167 -> 169 ;
170 [label="gini = 0.0\nsamples = 1\nvalue = [0, 1]\nclass = 1"] ;
169 -> 170 ;
171 [label="gini = 0.0\nsamples = 25\nvalue = [42, 0]\nclass = 0"] ;
169 -> 171 ;
172 [label="X[3] <= -0.793\ngini = 0.0\nsamples = 31953\nvalue = [50565, 5]\nclass = 0"] ;
156 -> 172 ;
173 [label="X[0] <= 1.488\ngini = 0.001\nsamples = 7315\nvalue = [11602, 5]\nclass = 0"] ;
172 -> 173 ;
174 [label="X[5] <= 0.483\ngini = 0.001\nsamples = 7179\nvalue = [11371, 3]\nclass = 0"] ;
173 -> 174 ;
175 [label="gini = 0.0\nsamples = 4301\nvalue = [6812, 0]\nclass = 0"] ;
174 -> 175 ;
176 [label="X[7] <= 0.46\ngini = 0.001\nsamples = 2878\nvalue = [4559, 3]\nclass = 0"] ;
174 -> 176 ;
177 [label="X[3] <= -1.48\ngini = 0.0\nsamples = 2746\nvalue = [4365, 1]\nclass = 0"] ;
176 -> 177 ;
178 [label="X[3] <= -1.481\ngini = 0.002\nsamples = 789\nvalue = [1274, 1]\nclass = 0"] ;
177 -> 178 ;
179 [label="gini = 0.0\nsamples = 788\nvalue = [1274, 0]\nclass = 0"] ;
178 -> 179 ;
180 [label="gini = 0.0\nsamples = 1\nvalue = [0, 1]\nclass = 1"] ;
178 -> 180 ;
181 [label="gini = 0.0\nsamples = 1957\nvalue = [3091, 0]\nclass = 0"] ;
177 -> 181 ;
182 [label="X[7] <= 0.462\ngini = 0.02\nsamples = 132\nvalue = [194, 2]\nclass = 0"] ;
176 -> 182 ;
183 [label="gini = 0.0\nsamples = 1\nvalue = [0, 1]\nclass = 1"] ;
182 -> 183 ;
184 [label="X[8] <= 0.902\ngini = 0.01\nsamples = 131\nvalue = [194, 1]\nclass = 0"] ;
182 -> 184 ;
185 [label="gini = 0.0\nsamples = 126\nvalue = [188, 0]\nclass = 0"] ;
184 -> 185 ;
186 [label="X[0] <= 0.185\ngini = 0.245\nsamples = 5\nvalue = [6, 1]\nclass = 0"] ;
184 -> 186 ;
187 [label="gini = 0.0\nsamples = 4\nvalue = [6, 0]\nclass = 0"] ;
186 -> 187 ;
188 [label="gini = 0.0\nsamples = 1\nvalue = [0, 1]\nclass = 1"] ;
186 -> 188 ;
189 [label="X[6] <= -1.37\ngini = 0.017\nsamples = 136\nvalue = [231, 2]\nclass = 0"] ;
173 -> 189 ;
190 [label="X[4] <= -0.861\ngini = 0.32\nsamples = 6\nvalue = [8, 2]\nclass = 0"] ;
189 -> 190 ;
191 [label="gini = 0.0\nsamples = 1\nvalue = [0, 2]\nclass = 1"] ;
190 -> 191 ;
192 [label="gini = 0.0\nsamples = 5\nvalue = [8, 0]\nclass = 0"] ;
190 -> 192 ;
193 [label="gini = 0.0\nsamples = 130\nvalue = [223, 0]\nclass = 0"] ;
189 -> 193 ;
194 [label="gini = 0.0\nsamples = 24638\nvalue = [38963, 0]\nclass = 0"] ;
172 -> 194 ;
195 [label="X[1] <= -0.75\ngini = 0.012\nsamples = 222\nvalue = [338, 2]\nclass = 0"] ;
151 -> 195 ;
196 [label="gini = 0.0\nsamples = 103\nvalue = [160, 0]\nclass = 0"] ;
195 -> 196 ;
197 [label="X[2] <= 0.51\ngini = 0.022\nsamples = 119\nvalue = [178, 2]\nclass = 0"] ;
195 -> 197 ;
198 [label="gini = 0.0\nsamples = 1\nvalue = [0, 1]\nclass = 1"] ;
197 -> 198 ;
199 [label="X[1] <= -0.743\ngini = 0.011\nsamples = 118\nvalue = [178, 1]\nclass = 0"] ;
197 -> 199 ;
200 [label="gini = 0.0\nsamples = 1\nvalue = [0, 1]\nclass = 1"] ;
199 -> 200 ;
201 [label="gini = 0.0\nsamples = 117\nvalue = [178, 0]\nclass = 0"] ;
199 -> 201 ;
202 [label="X[1] <= 3.072\ngini = 0.005\nsamples = 923\nvalue = [1461, 4]\nclass = 0"] ;
88 -> 202 ;
203 [label="gini = 0.0\nsamples = 1\nvalue = [0, 3]\nclass = 1"] ;
202 -> 203 ;
204 [label="X[7] <= 1.154\ngini = 0.001\nsamples = 922\nvalue = [1461, 1]\nclass = 0"] ;
202 -> 204 ;
205 [label="gini = 0.0\nsamples = 761\nvalue = [1212, 0]\nclass = 0"] ;
204 -> 205 ;
206 [label="X[7] <= 1.154\ngini = 0.008\nsamples = 161\nvalue = [249, 1]\nclass = 0"] ;
204 -> 206 ;
207 [label="gini = 0.0\nsamples = 1\nvalue = [0, 1]\nclass = 1"] ;
206 -> 207 ;
208 [label="gini = 0.0\nsamples = 160\nvalue = [249, 0]\nclass = 0"] ;
206 -> 208 ;
209 [label="X[9] <= -0.136\ngini = 0.008\nsamples = 2969\nvalue = [4728, 20]\nclass = 0"] ;
87 -> 209 ;
210 [label="X[5] <= -0.279\ngini = 0.022\nsamples = 1041\nvalue = [1629, 18]\nclass = 0"] ;
209 -> 210 ;
211 [label="X[9] <= -0.136\ngini = 0.047\nsamples = 479\nvalue = [736, 18]\nclass = 0"] ;
210 -> 211 ;
212 [label="X[5] <= -0.283\ngini = 0.042\nsamples = 478\nvalue = [736, 16]\nclass = 0"] ;
211 -> 212 ;
213 [label="X[4] <= -1.521\ngini = 0.039\nsamples = 477\nvalue = [736, 15]\nclass = 0"] ;
212 -> 213 ;
214 [label="gini = 0.0\nsamples = 1\nvalue = [0, 2]\nclass = 1"] ;
213 -> 214 ;
215 [label="X[8] <= 1.707\ngini = 0.034\nsamples = 476\nvalue = [736, 13]\nclass = 0"] ;
213 -> 215 ;
216 [label="gini = 0.0\nsamples = 1\nvalue = [0, 1]\nclass = 1"] ;
215 -> 216 ;
217 [label="X[7] <= 1.462\ngini = 0.032\nsamples = 475\nvalue = [736, 12]\nclass = 0"] ;
215 -> 217 ;
218 [label="X[5] <= -2.541\ngini = 0.019\nsamples = 452\nvalue = [708, 7]\nclass = 0"] ;
217 -> 218 ;
219 [label="X[7] <= 0.329\ngini = 0.083\nsamples = 55\nvalue = [88, 4]\nclass = 0"] ;
218 -> 219 ;
220 [label="gini = 0.0\nsamples = 35\nvalue = [59, 0]\nclass = 0"] ;
219 -> 220 ;
221 [label="X[7] <= 0.34\ngini = 0.213\nsamples = 20\nvalue = [29, 4]\nclass = 0"] ;
219 -> 221 ;
222 [label="gini = 0.0\nsamples = 1\nvalue = [0, 4]\nclass = 1"] ;
221 -> 222 ;
223 [label="gini = 0.0\nsamples = 19\nvalue = [29, 0]\nclass = 0"] ;
221 -> 223 ;
224 [label="X[5] <= -0.326\ngini = 0.01\nsamples = 397\nvalue = [620, 3]\nclass = 0"] ;
218 -> 224 ;
225 [label="X[2] <= 3.34\ngini = 0.003\nsamples = 380\nvalue = [594, 1]\nclass = 0"] ;
224 -> 225 ;
226 [label="gini = 0.0\nsamples = 375\nvalue = [590, 0]\nclass = 0"] ;
225 -> 226 ;
227 [label="X[9] <= -1.854\ngini = 0.32\nsamples = 5\nvalue = [4, 1]\nclass = 0"] ;
225 -> 227 ;
228 [label="gini = 0.0\nsamples = 1\nvalue = [0, 1]\nclass = 1"] ;
227 -> 228 ;
229 [label="gini = 0.0\nsamples = 4\nvalue = [4, 0]\nclass = 0"] ;
227 -> 229 ;
230 [label="X[4] <= -0.136\ngini = 0.133\nsamples = 17\nvalue = [26, 2]\nclass = 0"] ;
224 -> 230 ;
231 [label="X[0] <= 0.238\ngini = 0.444\nsamples = 5\nvalue = [4, 2]\nclass = 0"] ;
230 -> 231 ;
232 [label="gini = 0.0\nsamples = 4\nvalue = [4, 0]\nclass = 0"] ;
231 -> 232 ;
233 [label="gini = 0.0\nsamples = 1\nvalue = [0, 2]\nclass = 1"] ;
231 -> 233 ;
234 [label="gini = 0.0\nsamples = 12\nvalue = [22, 0]\nclass = 0"] ;
230 -> 234 ;
235 [label="X[8] <= 1.779\ngini = 0.257\nsamples = 23\nvalue = [28, 5]\nclass = 0"] ;
217 -> 235 ;
236 [label="gini = 0.0\nsamples = 2\nvalue = [0, 5]\nclass = 1"] ;
235 -> 236 ;
237 [label="gini = 0.0\nsamples = 21\nvalue = [28, 0]\nclass = 0"] ;
235 -> 237 ;
238 [label="gini = 0.0\nsamples = 1\nvalue = [0, 1]\nclass = 1"] ;
212 -> 238 ;
239 [label="gini = 0.0\nsamples = 1\nvalue = [0, 2]\nclass = 1"] ;
211 -> 239 ;
240 [label="gini = 0.0\nsamples = 562\nvalue = [893, 0]\nclass = 0"] ;
210 -> 240 ;
241 [label="X[0] <= 4.818\ngini = 0.001\nsamples = 1928\nvalue = [3099, 2]\nclass = 0"] ;
209 -> 241 ;
242 [label="gini = 0.0\nsamples = 1887\nvalue = [3036, 0]\nclass = 0"] ;
241 -> 242 ;
243 [label="X[0] <= 4.822\ngini = 0.06\nsamples = 41\nvalue = [63, 2]\nclass = 0"] ;
241 -> 243 ;
244 [label="gini = 0.0\nsamples = 1\nvalue = [0, 2]\nclass = 1"] ;
243 -> 244 ;
245 [label="gini = 0.0\nsamples = 40\nvalue = [63, 0]\nclass = 0"] ;
243 -> 245 ;
246 [label="X[3] <= -2.244\ngini = 0.384\nsamples = 11\nvalue = [20, 7]\nclass = 0"] ;
64 -> 246 ;
247 [label="gini = 0.0\nsamples = 2\nvalue = [0, 4]\nclass = 1"] ;
246 -> 247 ;
248 [label="X[1] <= 0.728\ngini = 0.227\nsamples = 9\nvalue = [20, 3]\nclass = 0"] ;
246 -> 248 ;
249 [label="gini = 0.0\nsamples = 8\nvalue = [20, 0]\nclass = 0"] ;
248 -> 249 ;
250 [label="gini = 0.0\nsamples = 1\nvalue = [0, 3]\nclass = 1"] ;
248 -> 250 ;
}